%YAML:1.0
my_svm: !!opencv-ml-svm
   svm_type: C_SVC
   kernel: { type:LINEAR }
   C: 5.0000000000000000e-01
   term_criteria: { epsilon:9.9999999747524271e-07, iterations:1000 }
   var_all: 4096
   var_count: 4096
   class_count: 3
   class_labels: !!opencv-matrix
      rows: 1
      cols: 3
      dt: i
      data: [ 0, 1, 2 ]
   sv_total: 3
   support_vectors:
      - [ -1.16520841e-03, -1.41702930e-03, -3.16815451e-04,
          -1.56493232e-04, -2.06560292e-03, 0., -6.73253206e-04, 0.,
          -1.72271952e-03, 1.65574937e-04, 0., 0., 1.14570248e-04, 0.,
          -9.96847171e-04, -2.24077213e-03, -6.16584066e-03,
          6.95393304e-04, -1.21971569e-03, 0., 1.55884761e-03, 0.,
          3.06039088e-04, 0., -6.80395460e-04, 0., -5.89632196e-04,
          5.05044998e-04, 1.08927407e-03, -4.05249244e-04,
          -3.11017875e-03, -2.04043509e-03, 4.34720982e-03,
          -1.21835258e-03, 1.28027605e-04, 7.21011893e-04,
          -1.82137985e-04, 0., -2.09618709e-03, 0., -7.57857459e-04, 0.,
          3.46633606e-04, -5.05385979e-04, -1.70785899e-03, 0.,
          -5.44185401e-04, 0., 9.92343761e-03, 1.94686220e-03,
          9.67771994e-05, 0., 6.66556589e-04, -2.27920737e-05,
          -2.06266763e-03, 0., 2.09962158e-03, 0., 2.58871092e-04,
          -4.71572363e-04, 6.32872665e-03, 1.38721196e-03,
          -4.16685129e-03, -9.56642543e-05, 5.02492650e-04,
          -2.51935300e-04, 1.39048300e-03, 0., 0., 0., 0., 0.,
          -1.22594892e-03, 1.56377151e-04, 0., 0., -4.71572363e-04, 0.,
          -2.39397306e-03, 2.61624664e-04, 6.81495410e-04, 0.,
          6.54115356e-05, 2.92686222e-04, -8.08377983e-04, 0.,
          -9.53416529e-05, 0., -3.06074508e-03, 4.07305371e-04,
          -2.66404822e-04, 3.46633606e-04, 3.18503910e-04,
          7.57667804e-05, 4.12926049e-04, 1.36808056e-04, 1.85217091e-03,
          1.70330098e-03, 6.44034822e-04, -1.43510441e-03,
          -1.73104214e-04, 0., 0., -7.15951144e-04, 8.53801903e-04,
          2.49020639e-04, 1.50375790e-03, 0., 1.88656326e-04, 0.,
          -1.55221799e-03, -2.65297451e-04, -1.61481183e-03,
          -7.98799912e-04, -4.70540224e-04, 2.95889156e-04,
          6.00712840e-04, 2.95889156e-04, -1.51410943e-03,
          5.73388010e-04, 2.30416423e-03, 5.16759988e-04, 2.95889156e-04,
          2.92686222e-04, 4.30532917e-03, -3.11197224e-03,
          1.18474243e-04, 1.18963377e-04, -8.73030163e-04,
          -2.11938255e-04, 0., 2.08149781e-03, 0., 0., 0.,
          9.47209133e-04, 1.34713082e-05, 0., 0., 0., 0., 0.,
          -2.64445390e-03, 1.41396435e-04, 0., 0., 0., 0., 0., 0., 0.,
          1.56377151e-04, 3.72577226e-04, 0., 0., 0., 0.,
          -1.67988776e-03, -1.82137985e-04, -8.55391205e-04,
          1.03821186e-03, 3.15523037e-04, -9.68050910e-04,
          9.31376533e-04, 0., 0., 0., 0., 5.05044998e-04, 6.44766726e-04,
          0., 0., -8.56172337e-05, 0., 4.24263184e-04, -1.07932871e-03,
          -8.96295474e-04, 0., 0., 2.58871092e-04, 2.95889156e-04, 0.,
          0., 0., 0., 8.00563372e-04, 0., 0., 9.08895381e-05,
          7.88170611e-04, 1.17600057e-03, -2.40792264e-03,
          -4.74978704e-04, -1.84988335e-03, 0., -1.75341638e-03,
          -2.18745830e-04, 0., 0., 1.74332620e-03, 5.64223505e-04, 0.,
          -1.73104214e-04, 0., -1.38873380e-04, 0., 1.96550478e-04,
          -3.99682531e-03, 3.54978343e-04, 0., 2.18409681e-04, 0., 0.,
          0., 0., 0., 6.44766726e-04, 3.03785986e-04, -5.71973913e-04,
          0., 4.58465423e-04, 9.42393817e-05, 0., -3.99037788e-04,
          -3.07509629e-03, -7.35915964e-03, 1.43575354e-03,
          1.68341165e-03, 0., -1.91000418e-05, 8.68430070e-05,
          2.16967333e-03, 5.43155591e-04, 4.51949250e-04, 0.,
          1.82481264e-04, -1.28851330e-03, 2.59523891e-04,
          -1.78614946e-03, 2.72248493e-04, 9.52694798e-04,
          8.18005297e-03, 5.47282398e-04, -2.84888956e-04,
          4.81344294e-04, -2.35709449e-04, -9.81532969e-04,
          1.63183513e-03, 3.03759077e-03, 2.51892925e-04, 5.16759988e-04,
          -2.54833861e-03, 2.83371028e-03, 2.37449794e-03,
          5.98519458e-04, -4.35870083e-04, 7.12589873e-03,
          1.35820068e-03, 1.77926646e-04, 2.51176115e-03, 0., 0.,
          7.08140433e-04, 6.44766726e-04, 1.34713082e-05, 0., 0.,
          1.16152677e-03, 0., 0., 0., 0., -2.20645205e-04,
          4.31346183e-04, 2.92686222e-04, 0., 0., 1.34713082e-05,
          5.51557285e-04, 0., 5.86869195e-04, 0., 0., 0., 6.44766726e-04,
          0., 1.91380459e-04, -6.12424221e-04, -1.16583396e-04,
          4.93737229e-04, 0., 0., 0., 0., 0., 0., 0., 0., 0., 0., 0., 0.,
          0., 0., -5.28550649e-04, 7.57667804e-05, 0., 0., 0., 0., 0.,
          0., 5.11475489e-04, 0., 0., 0., 0., 3.54978343e-04,
          -1.28498056e-03, -5.71973913e-04, 1.17892888e-03,
          -3.74980911e-04, 0., 5.06903511e-04, 0., 0., 0., 0., 0., 0.,
          0., 0., 0., 0., 0., 2.92686222e-04, -8.91880016e-04,
          3.30512295e-04, 0., 2.95889156e-04, 0., 0., 0., 0., 0., 0., 0.,
          2.17589884e-04, 0., 0., 0., 0., -7.89691752e-04,
          7.59219402e-04, 0., 6.95393304e-04, 0., 0., 0., 0., 0., 0., 0.,
          0., 0., 0., 0., 0., -3.84908752e-03, -2.15291948e-04, 0., 0.,
          0., 0., 0., 0., -3.54350312e-03, 0., -1.32796777e-04, 0., 0.,
          0., -7.69026927e-04, -4.05249244e-04, 3.40305734e-03,
          4.11972078e-03, -9.53416529e-05, 2.32143924e-04, 0.,
          3.03785986e-04, 2.92686222e-04, 1.99767388e-03, 0., 0., 0., 0.,
          0., 0., 0., 1.91380459e-04, 2.66860821e-04, -3.18617298e-04,
          -8.56172337e-05, 8.04459094e-04, 0., 6.95393304e-04, 0.,
          5.16759988e-04, 0., 7.57667804e-05, 0., 0., 3.15523037e-04,
          4.50251537e-04, 0., 1.16152677e-03, 3.72560578e-04,
          1.02557719e-03, 0., 0., 0., 0., 0., 0., 0., 0., 0., 0., 0., 0.,
          -6.80323516e-04, 0., -1.94218956e-04, 4.96194349e-04, 0.,
          3.46633606e-04, 0., 1.56377151e-04, 0., 0., -1.16696570e-03,
          0., 0., 0., 0., 0., 0., 5.92257304e-04, -3.93433613e-04,
          1.14179112e-03, 0., 1.70552739e-04, 0., 1.56377151e-04, 0., 0.,
          0., 6.95393304e-04, 3.03785986e-04, 3.03785986e-04, 0., 0., 0.,
          0., -1.85896270e-03, -1.34575705e-03, 0., 2.55379057e-03, 0.,
          6.36931160e-04, 0., 3.54978343e-04, 0., 0., 0., 0., 0.,
          3.46633606e-04, 0., 7.38891016e-04, -1.47946877e-03,
          -7.17805140e-03, -9.68050910e-04, 1.87679208e-04, 0.,
          -5.41039451e-04, 0., 2.06400780e-03, -1.01441424e-03, 0.,
          -8.56172337e-05, -9.53416529e-05, 0., 3.15523037e-04,
          -7.26973987e-04, 1.56429393e-04, -7.31732362e-05,
          -8.20349343e-03, 6.31793460e-04, -3.84136732e-03,
          -8.56172337e-05, 5.21802940e-05, 0., -1.10194157e-03,
          2.71702564e-04, -1.99356722e-03, 0., 1.13637070e-03,
          -1.26071216e-03, -1.24774745e-03, -7.48764214e-05,
          -1.74467964e-03, 2.58525251e-03, -8.60641885e-04, 0.,
          3.68453009e-04, 5.16759988e-04, 0., 0., 0., 0., 7.08140433e-04,
          0., 0., 0., 0., 0., 0., 4.87922598e-03, -1.75766254e-04,
          2.58871092e-04, 7.73988431e-04, 0., 0., 0., 0., 0., 0.,
          1.16152677e-03, 0., 0., 2.92686222e-04, 4.84066666e-04, 0.,
          -3.08827934e-04, 1.58045877e-05, 0., 0., 0., 0., 0., 0., 0.,
          0., 0., 0., 0., 0., 0., 0., 1.99492974e-03, -8.17376887e-04,
          0., 0., 0., 0., 0., 0., 1.95922097e-04, -3.65256332e-04, 0.,
          1.91380459e-04, 6.44766726e-04, 0., 0., 0., -8.65952461e-04,
          1.03727289e-04, 0., 0., 0., 0., 0., 0., 0., 6.44766726e-04, 0.,
          0., 0., 0., 0., 0., 6.75670526e-05, 0., 0., 0., 0., 0., 0., 0.,
          0., 0., 0., 0., 0., 0., 0., 0., -3.60864704e-03,
          -1.27077015e-04, 6.88677013e-04, 0., -5.41039451e-04, 0., 0.,
          0., 0., 0., 0., 0., 0., 0., 0., 0., 5.00094891e-03,
          2.31639933e-04, 0., -9.07331589e-04, -3.62110353e-04,
          5.16759988e-04, 0., 0., 5.08637750e-04, 6.71140151e-04, 0.,
          -1.73104214e-04, 0., 5.21375856e-04, 0., 0., 1.20362139e-03,
          -6.41476654e-04, 0., 0., 0., 0., 0., 1.35290716e-03, 0., 0.,
          0., 0., 0., 0., 0., 0., 1.08074490e-03, 4.41646669e-04, 0., 0.,
          0., 0., 0., 0., 0., 0., 0., 0., 0., 0., 0., 2.07068981e-04,
          -2.45781103e-03, -3.04620597e-03, 0., -1.26984343e-03, 0., 0.,
          0., 0., 0., 0., 0., 0., 0., 0., 0., 0., 6.80763449e-04,
          5.94818208e-04, 0., 0., 0., -8.08400509e-04, 0., 0., 0.,
          -5.41039451e-04, 0., 0., 0., 0., 0., 0., -2.03919946e-03,
          -1.40280940e-03, 3.54978343e-04, 2.23236973e-04, 0., 0., 0.,
          0., 0., 0., 0., 0., 0., 0., 0., 0., 5.42251917e-04,
          -9.91605688e-04, 0., 0., 0., 0., 0., 0., 0., 0., 0., 0., 0.,
          0., 0., 0., 2.51828274e-03, 3.65502713e-03, -1.16696570e-03,
          -1.76045520e-03, -6.67315559e-04, 7.11869099e-04, 0.,
          1.59073737e-03, -1.16696570e-03, 6.44766726e-04, 0., 0., 0.,
          0., 0., -1.16757554e-04, -1.28625557e-04, -2.28004646e-03,
          3.91062822e-05, -6.60081767e-03, -2.27920737e-05,
          -2.84749869e-04, 0., -1.87966623e-03, 0., -3.11009912e-03, 0.,
          1.36380096e-03, 0., -2.19649199e-04, 0., 4.83784912e-04,
          -4.67496757e-05, -8.39319488e-04, 1.08503446e-03,
          -1.46698556e-03, 3.15838889e-03, -1.27268571e-03,
          -1.42221095e-03, -2.24675145e-03, 5.15092979e-04,
          2.61308451e-04, 7.57667804e-05, 2.35983243e-04, 4.46351507e-04,
          1.13296672e-03, 3.22907028e-04, 4.00841876e-04, 4.79895272e-04,
          -1.05316087e-03, 0., 6.31651084e-04, 0., 0., 6.31793460e-04,
          -8.07818360e-05, 4.15248243e-04, 5.46033843e-04, 0., 0., 0.,
          2.35983243e-04, 0., 0., -9.50813526e-04, 0., 0., 0., 0., 0.,
          0., 0., 0., 0., 0., 2.35983243e-04, 0., 0., 0., 1.91380459e-04,
          0., 0., 0., 0., 0., 0., 0., 0., 1.91380459e-04, 0., 0.,
          5.16759988e-04, 0., 0., 0., 0., -6.06925343e-04,
          -1.05366821e-03, -1.03277169e-04, -1.38886750e-03, 0., 0.,
          -6.60887803e-04, 1.10434706e-03, 1.56377151e-04,
          -1.16696570e-03, 1.91380459e-04, -5.41039451e-04, 0., 0., 0.,
          1.27641787e-03, -3.55801058e-05, 0., 0., 0., 0., 0.,
          2.35983243e-04, 0., 0., 0., 0., 0., 0., 1.91380459e-04, 0.,
          -4.80154733e-04, -1.34019174e-05, 0., 0., 0., 0., 0., 0.,
          6.31651084e-04, 0., 0., 0., 0., 0., 0., 0., 5.89111354e-04,
          -5.89632196e-04, 0., 0., 0., 0., 0., 0., 0., 1.48091395e-03,
          -1.17450184e-03, 0., 0., 5.16759988e-04, 0., 6.44766726e-04,
          1.91380459e-04, 1.63571490e-03, -2.39099609e-03,
          -2.86274264e-03, 2.61224620e-03, 1.33646897e-03,
          -3.61811573e-04, -1.69994822e-03, -2.52681808e-03,
          9.37325007e-04, -2.82826688e-04, 0., -5.09419013e-04,
          4.64745041e-04, -1.00388141e-04, -2.19384930e-03,
          1.41265523e-03, -1.55918812e-03, -1.07133936e-03,
          -3.14597514e-06, 2.58871092e-04, 0., 0., 3.51030874e-04,
          -1.96721339e-05, 1.35323079e-03, 1.34688523e-03,
          -3.80593439e-04, -2.96698825e-04, 0., 0., 0., 1.14942971e-03,
          -1.26288540e-03, 0., -4.80154733e-04, -2.15191089e-04, 0., 0.,
          2.18409681e-04, -9.06578673e-04, 0., 0., 0., 0., 0., 0., 0.,
          7.47514539e-04, 4.98583773e-04, 0., 0., 1.22888898e-03, 0., 0.,
          -3.62110353e-04, 0., 1.13669608e-03, 0., 0., 0.,
          1.91380459e-04, 5.16759988e-04, -6.69456844e-04,
          1.93793117e-03, 1.09701105e-04, -6.58815436e-04,
          6.68024120e-04, 1.48442481e-03, 3.03785986e-04,
          -1.14273373e-03, 1.90320052e-03, 3.22428066e-03, 0.,
          2.69245851e-04, 3.46633606e-04, 8.96156882e-04, 0.,
          -1.34961330e-03, 0., -2.56478926e-03, -1.37457496e-03,
          1.59530144e-03, 0., 4.50553605e-04, -5.71973913e-04,
          -9.51135356e-04, 0., 1.67657027e-03, -9.85876890e-04,
          8.81178072e-04, 0., 1.32068701e-03, 5.56025538e-04,
          1.00755785e-03, 0., 6.54560572e-05, -8.30330048e-03,
          1.77321635e-04, -1.73104214e-04, 5.89036499e-04,
          -2.66404822e-04, 0., -1.56583992e-04, -3.98725097e-04,
          2.61977228e-04, 7.98405265e-04, -6.59022116e-05,
          -9.68050910e-04, -7.70445040e-04, 0., 5.17765339e-03,
          2.35285581e-04, -8.72932002e-03, -8.70023482e-03,
          -8.07818360e-05, -5.27199300e-04, 1.56377151e-04,
          -2.18745830e-04, -1.07349988e-04, -1.37475342e-03,
          3.69853410e-03, -1.25193410e-03, 8.05054500e-04,
          8.67776689e-04, 1.86377065e-03, -1.07842835e-03,
          5.94244758e-03, 4.53254161e-03, 7.45777320e-03,
          -7.29403037e-05, -4.64170286e-03, 1.69587228e-03,
          -1.45316252e-03, -2.75949715e-03, -2.73533957e-03,
          5.60303964e-03, -1.65653415e-03, 1.59650401e-04,
          -1.16160605e-03, 8.97694554e-04, -4.69251722e-03,
          7.57667804e-05, -4.28820075e-03, 4.76046186e-03,
          1.40896870e-03, -2.05274526e-04, 6.88677013e-04,
          -1.70800509e-03, 5.84719470e-04, -5.05385979e-04,
          -1.41271751e-03, -2.75803031e-03, -7.48860557e-03, 0., 0., 0.,
          7.51166558e-03, 2.04851764e-04, 1.29785028e-03,
          -9.08435881e-03, 3.29692499e-04, -2.18745830e-04, 0., 0., 0.,
          0., 0., 7.83637806e-04, -1.35978579e-03, 0., 0., 0.,
          -2.18745830e-04, 0., 3.03785986e-04, 1.97445974e-03,
          1.67506427e-04, 5.86869195e-04, 0., 0., -1.17450184e-03, 0.,
          0., 1.91380459e-04, -4.29936597e-04, 0., 0., 0.,
          -2.85353541e-04, 0., 2.58871092e-04, 2.61465786e-03,
          2.11198092e-03, -5.00026217e-04, 5.16759988e-04,
          -5.80856169e-04, 0., 0., 0., -2.47214019e-04, 0., 0., 0., 0.,
          -1.55768311e-03, -1.82137985e-04, 1.67869276e-03,
          -4.60753305e-04, 8.59899039e-04, 0., 0., 0., 0., 0., 0., 0.,
          -3.65936954e-04, 0., 6.54115356e-05, 0., -1.75100018e-03, 0.,
          0., -5.05980315e-05, 1.03351998e-03, 1.00510626e-03, 0., 0.,
          0., 0., 0., 0., 0., 0., 0., 0., -3.62110353e-04, 0.,
          1.91380459e-04, 4.69931198e-04, 7.40849238e-04, 0., 0., 0., 0.,
          0., 0., 0., -1.61743595e-03, 0., 0., 0., -2.63095065e-03,
          -1.17764785e-03, 0., 8.80750013e-04, 1.29981095e-03,
          1.05307426e-03, -2.98146537e-04, 6.45016972e-03,
          -6.84973842e-04, 7.11833651e-04, -1.82137985e-04,
          6.31144689e-03, 0., -5.20149479e-05, 0., 0., -6.73253206e-04,
          0., -8.58587038e-04, -3.34145827e-03, 1.59650401e-04,
          3.06743168e-04, 6.44766726e-04, -2.21621289e-04, 0., 0., 0.,
          -1.52815075e-03, 0., 0., 0., 0., 0., 0., 7.77825597e-04,
          2.11081351e-03, 1.91380459e-04, 1.08148879e-03, 0.,
          -1.68010360e-04, 0., 0., 0., 0., 0., 0., 0., 0., 0., 0., 0.,
          0., 0., 5.86869195e-04, 0., 4.76460962e-04, 0., 0., 0., 0., 0.,
          0., 0., 0., 0., 0., 0., -1.15340797e-03, 1.16152677e-03,
          8.51712015e-04, -9.53416529e-05, 6.62732497e-03, 0.,
          8.10666999e-04, -2.27920737e-05, 4.35671350e-03, 0., 0.,
          -5.71973913e-04, -6.73253206e-04, 0., 0., -3.62110353e-04,
          -7.30376737e-03, 0., 4.28325671e-04, 0., -3.62110353e-04, 0.,
          0., 0., 1.91380459e-04, 5.16759988e-04, 0., 0., 0., 0., 0.,
          6.44766726e-04, -3.02680512e-03, 7.41042022e-04,
          1.43811270e-03, -8.12849496e-04, -4.39717725e-04,
          -4.80154733e-04, 2.22366001e-03, -9.17703612e-04,
          -1.70008789e-04, 0., 5.66581031e-03, 2.17589884e-04,
          -1.81458949e-03, 0., 1.98630150e-03, -2.00181897e-03,
          -8.08209181e-03, 0., 3.62248364e-04, 4.28325671e-04, 0., 0.,
          0., 4.28325671e-04, 1.80091680e-04, -9.53416529e-05,
          5.16759988e-04, 0., -6.73253206e-04, -8.74279474e-04, 0.,
          9.63657920e-04, -2.27854820e-03, 1.63728744e-03,
          8.00563372e-04, -2.82827648e-03, 5.92257304e-04,
          -2.57303496e-03, 0., 1.78355339e-03, 0., 4.66460409e-03, 0.,
          -7.14027090e-04, 0., -2.50672223e-04, 6.97204960e-04,
          -1.06967380e-02, -4.25585592e-03, 4.60708601e-04,
          -5.71973913e-04, -3.38696386e-03, 1.14981178e-03,
          -5.30568650e-04, 0., -2.07397668e-03, -2.66404822e-04,
          -3.08546517e-03, -9.86480503e-04, 8.51884426e-04,
          -1.25528371e-03, 2.47472082e-03, 6.88677013e-04,
          8.75575293e-04, -1.10725900e-02, -5.05385979e-04, 0., 0., 0.,
          5.20967005e-04, 0., 6.31651084e-04, 0., -1.19356730e-03,
          1.10269873e-03, 2.21878500e-03, 0., -4.21336183e-04,
          3.54978343e-04, -2.08635727e-04, 7.67750782e-04,
          1.18011609e-03, 0., 0., 0., 6.54115356e-05, 0., 0., 0.,
          7.51270959e-03, 0., 1.18694897e-03, 0., 1.76412389e-02,
          4.69377876e-04, -2.96181371e-03, -5.00855385e-04,
          8.36147228e-04, 6.31793460e-04, 0., 0., 0., 0., 0., 0., 0., 0.,
          0., 0., 0., 5.05044998e-04, 7.61663308e-04, -2.29103770e-03,
          0., 0., 0., 0., 0., 0., 0., 0., 5.99675113e-04, 0.,
          8.00563372e-04, 0., 6.54115356e-05, 0., 2.04375829e-03,
          1.34337344e-03, 0., 0., 0., 0., 0., 0., 0., 0.,
          -8.56172337e-05, 0., 3.03785986e-04, 0., -5.05385979e-04, 0.,
          4.07305371e-04, -4.07361891e-04, -3.62110353e-04,
          -9.07331589e-04, 0., 0., 6.95393304e-04, 0., -8.07818360e-05,
          0., 1.05874824e-04, -1.34653505e-03, 7.53634667e-04,
          8.24753020e-04, -3.85739491e-03, -4.27360501e-04,
          1.71096937e-03, 1.97844789e-03, 6.88677013e-04, 3.06157512e-04,
          0., 0., 0., 0., 0., 0., 0., 0., 0., 0., -5.71973913e-04, 0.,
          0., 0., 0., 0., -1.82137985e-04, 0., 0., 0., 0., 0.,
          6.31651084e-04, 8.36147228e-04, 2.58871092e-04, 0.,
          1.89162919e-03, 6.31793460e-04, 2.07148190e-03,
          -3.84909031e-03, -9.68050910e-04, 0., 0., 0., 0., 0., 0., 0.,
          -1.33791924e-04, 0., 0., 0., -5.71973913e-04, 0.,
          -9.51742521e-04, -1.86599814e-03, -3.62110353e-04,
          3.06157512e-04, 0., 0., 0., 0., 0., 0., -4.80154733e-04, 0.,
          1.00561813e-03, 0., -6.95740804e-04, 0., 5.65796974e-04,
          2.52643297e-03, 0., 0., 0., 0., 0., 0., 0., 0., 0., 0., 0., 0.,
          0., 0., 0., 0., 0., 0., -3.62110353e-04, 0., 0., 0., 0., 0.,
          -1.73104214e-04, 0., 7.59325514e-04, 0., 8.00563372e-04, 0.,
          4.07305371e-04, 1.01091631e-03, 7.96449021e-04, 0., 0., 0.,
          -1.26714481e-03, 0., 0., 0., 0., 0., -6.80323516e-04, 0.,
          -6.69456844e-04, 0., 1.50366002e-04, 7.21011893e-04,
          7.46243895e-05, 5.64131013e-04, -2.33251927e-03,
          4.28325671e-04, -9.14921809e-04, 7.57667804e-05,
          2.26543215e-03, -1.56939751e-03, -3.52488598e-03, 0.,
          -4.88020101e-04, 0., -1.10078591e-03, 9.04646295e-04,
          -7.75425578e-04, -2.74671504e-04, 4.60121315e-03,
          6.44766726e-04, 7.07976753e-04, 8.56674800e-04,
          -1.05623272e-04, 1.06517975e-04, -2.42348178e-03,
          -2.19814084e-03, -2.48885504e-03, 1.03654666e-03,
          -1.43802536e-04, -2.43382179e-03, -1.17374503e-03,
          -1.66399070e-04, -1.22705391e-02, 6.95053767e-03,
          -9.06191490e-05, 0., 0., 0., 0., 0., 0., 0., 1.37946743e-03,
          1.91380459e-04, 0., 8.09446210e-04, -3.99829063e-04,
          5.92257304e-04, -4.95033897e-03, -3.66684771e-03,
          2.65247712e-04, 5.90395532e-04, -3.78829078e-04,
          2.35983243e-04, 0., 7.10178283e-04, 0., 7.08140433e-04, 0., 0.,
          0., 6.88677013e-04, 0., 0., 0., 5.11095917e-04,
          -4.25363705e-03, 2.92686222e-04, 6.31793460e-04, 0., 0., 0.,
          0., 0., 1.60558673e-03, 0., 0., 0., 2.35983243e-04, 0., 0.,
          -4.15596762e-04, -1.72653352e-04, 3.54978343e-04, 0., 0.,
          5.05044998e-04, 0., 4.59220231e-04, 0., 0., 0., 0.,
          6.54115356e-05, 7.11091387e-04, 0., 1.94797816e-04,
          4.38280404e-03, -3.47719179e-03, 8.00563372e-04, 0., 0., 0.,
          0., 0., 0., 2.21812725e-03, 0., 0., -2.66404822e-04,
          -7.16691837e-04, 0., 2.13782839e-03, 1.95922228e-04, 0.,
          -6.37586854e-05, 2.95889156e-04, 8.74672551e-04, 0., 0., 0.,
          0., 0., 0., 0., 2.17589884e-04, 0., 0., 0., 0.,
          -2.59981007e-05, -7.70602855e-05, 0., 0., 6.54115356e-05, 0.,
          0., 1.91380459e-04, 1.21993851e-03, 0., 0., -5.41039451e-04,
          -1.90612732e-03, 7.57667804e-05, -8.56172337e-05,
          1.56136823e-03, 9.43205145e-04, 2.95839767e-04,
          -6.79545163e-04, 7.96398905e-04, -1.02778331e-05,
          -7.21885444e-05, -2.86648190e-03, 8.77625309e-03,
          -4.14743205e-04, 0., -1.92419844e-04, 1.76492834e-03, 0.,
          6.31793460e-04, 3.98108910e-04, 2.93851341e-03,
          -6.08931994e-04, 0., 1.30181538e-03, 1.48039777e-03, 0., 0.,
          5.65891212e-04, 9.95540293e-04, 0., 0., 0., -5.20149479e-05,
          0., 0., -3.05056223e-04, 4.59361618e-04, 0., -1.73104214e-04,
          -2.08183331e-03, 2.21034847e-04, 0., 0., 0., 1.36933720e-03,
          0., 0., 0., 1.67367794e-03, 0., 0., 0., 9.22596839e-04, 0., 0.,
          0., 0., 0., 0., 0., -7.46225705e-04, 0., 0., 0., 0., 0., 0.,
          0., -1.42853794e-04, -3.49659007e-04, 1.72593386e-03,
          7.17560295e-04, 6.93155918e-04, 0., -3.96504620e-04, 0.,
          4.98359906e-04, 0., 0., 5.05044998e-04, -1.99363311e-03, 0.,
          1.01632286e-04, -5.00060443e-04, -1.11193431e-03, 0., 0.,
          -1.82137985e-04, 2.42984097e-04, 0., 0., 0., 7.23567573e-05,
          0., 0., 1.56377151e-04, -1.44367886e-03, 0., 0.,
          8.00563372e-04, -1.32052682e-03, 0., -2.07949360e-03,
          -6.43018109e-04, -1.96100539e-03, 0., 6.38182741e-04,
          -1.85978264e-04, -2.48246593e-03, 5.92257304e-04, 0., 0.,
          4.27872816e-04, 0., 0., -1.74509792e-03, 1.80231745e-03,
          4.28325671e-04, 2.35983243e-04, 0., -8.42265086e-04, 0.,
          -9.07331589e-04, 0., -1.80655741e-03, 0., 3.46633606e-04, 0.,
          0., 0., 0., 2.92686222e-04, -3.50360735e-03, 4.16078372e-04,
          1.30750553e-03, -1.98204862e-03, -4.44322795e-04,
          8.44607712e-04, -1.11574784e-03, -2.38049659e-03,
          1.92925171e-03, -5.58045467e-05, -1.84728915e-03,
          -5.13865380e-04, 0., 1.21664582e-03, -1.82137985e-04,
          -7.23196426e-03, 2.48929951e-04, -7.12645007e-04,
          2.83189263e-04, -6.56905409e-04, -3.14597514e-06,
          -4.57795541e-04, 0., -4.76391906e-05, 0., -6.48054201e-03,
          1.34713082e-05, -2.36484711e-03, 0., 1.80120219e-03,
          -5.80242020e-04, -6.92357263e-03, -1.70476816e-03,
          1.89512590e-04, 2.35983243e-04, 0., 0., 3.00147454e-04, 0., 0.,
          7.35169684e-04, 1.91380459e-04, 0., 0., 0., 2.92686222e-04, 0.,
          -1.07146811e-03, 1.55433863e-05, 2.39024358e-03, 0., 0., 0.,
          6.40704704e-04, 0., 0., 0., 4.34976071e-03, -5.20854956e-04,
          -2.00993309e-04, 0., 9.53146350e-03, -5.89632196e-04,
          1.01036541e-02, -3.15130968e-03, -1.75278517e-04,
          5.49425080e-04, 0., 0., 0., 1.91380459e-04, 0.,
          -2.18745830e-04, 0., 0., 0., 0., 2.58871092e-04, 0.,
          1.20716845e-03, 0., -1.43700672e-04, 0., 0., 0., 0., 0.,
          6.44766726e-04, -8.07818360e-05, 1.34713082e-05, 0., 0., 0.,
          0., 7.57667804e-05, -1.71417405e-03, 7.63886375e-04,
          9.60533449e-04, 0., 0., 1.01091631e-03, 0., 0., 8.09446210e-04,
          0., 2.74196529e-04, 0., 0., 0., 0., 0., -3.15188721e-04,
          1.39271060e-03, -1.44313427e-03, -2.12699742e-04, 0., 0., 0.,
          0., 0., 1.91380459e-04, 1.08524680e-03, 4.71900188e-04, 0., 0.,
          4.64630127e-03, 0., -5.42729534e-03, 5.17970358e-04,
          -1.88721577e-04, 1.41426281e-03, 0., 1.21263135e-03, 0., 0.,
          0., -9.86277359e-04, 0., -6.80323516e-04, 0., 5.16759988e-04,
          0., 0., -1.84775505e-03, 2.95889156e-04, -9.57887154e-04,
          1.79972427e-04, 0., 0., 0., 0., 0., 0., 0., -1.74246205e-03,
          0., 0., 0., 0., 3.45497602e-03, 1.59267953e-03, 8.40947381e-04,
          0., 0., 0., 0., 0., 0., 0., 0., 0., 0., 0., 0., 0.,
          -5.75496408e-04, 0., 0., 0., 0., 0., 0., 0., 0., 0.,
          5.73526602e-04, 7.59592396e-04, 0., 0., 0., 0., 0.,
          -1.31336099e-04, 1.58220145e-03, 1.74522749e-03,
          6.44766726e-04, 3.43655789e-04, 3.54978343e-04, 3.01394786e-04,
          -5.05385979e-04, -1.73104214e-04, 0., 0., 0., 8.36147228e-04,
          0., 0., 0., -8.56172337e-05, -1.99219176e-05, 0., 0.,
          6.44766726e-04, 0., 0., 0., 0., 0., 0., 0., 5.16759988e-04, 0.,
          0., -4.85300734e-05, 1.81147968e-03, -1.41479002e-04,
          5.16759988e-04, -9.53416529e-05, 8.09446210e-04,
          5.05044998e-04, 0., 0., 0., 6.50573580e-04, 0.,
          -1.16696570e-03, 0., 1.18173033e-04, 2.92686222e-04,
          -1.04657479e-03, -2.26347614e-03, -5.71278390e-03,
          -6.71348360e-04, 2.20138882e-03, 7.08140433e-04,
          -2.49143853e-03, 1.91380459e-04, 1.02836324e-03,
          1.07309246e-03, -5.01063932e-03, 3.88628396e-04,
          1.04202691e-03, 9.11913987e-04, 2.16494594e-03, 1.14475214e-03,
          -2.56685773e-03, -5.41164121e-03, 1.03466762e-02,
          2.82261812e-04, 4.67262277e-03, -1.46899640e-03,
          2.73421011e-03, 3.98694508e-04, 2.69616419e-03, 2.92686222e-04,
          2.48874235e-03, 0., 3.98279261e-03, 0., 3.60580650e-03,
          6.31793460e-04, 5.62657078e-04, 9.03993438e-04, 1.46932388e-03,
          -2.01286733e-04, 3.03785986e-04, 0., 2.91566271e-03,
          9.46308719e-04, 1.29395013e-03, 1.54928654e-03, 1.01087037e-02,
          0., 3.69123445e-04, 1.56377151e-04, 5.67058660e-03,
          7.22828379e-04, 3.46450554e-03, 3.32505000e-03, 2.33966135e-03,
          -1.11653586e-03, 0., -6.59022116e-05, 1.56308073e-04, 0.,
          5.92257304e-04, -2.66404822e-04, 3.10960831e-03, 0., 0., 0.,
          -7.79120455e-05, 0., 0., 0., 3.82314553e-03, 0.,
          -6.59022116e-05, 0., -5.40523091e-04, 9.41847567e-04,
          1.13740380e-05, 0., 1.54724661e-02, 1.16976083e-03,
          9.96872550e-04, 8.09446210e-04, 1.04404744e-02, 7.57667804e-05,
          3.85433756e-04, 5.92257304e-04, 3.75042902e-03,
          -8.61078443e-05, -3.14597514e-06, -2.26370734e-03,
          1.19237392e-03, 5.92257304e-04, 0., 2.32837265e-04,
          6.19309023e-04, 0., 0., 0., 6.54115356e-05, 0., 0., 0.,
          -2.55371502e-04, -1.43648242e-04, 0., 1.90326199e-03,
          5.92257304e-04, -9.68050910e-04, 3.46633606e-04,
          3.46633606e-04, 2.48309923e-03, 0., 0., 0., 8.90377501e-04,
          1.43235677e-03, 1.34713082e-05, 1.02058297e-03,
          -2.35233401e-05, -6.37779431e-03, 9.56995122e-04,
          -9.44444793e-04, 6.08303468e-04, -1.04979076e-03,
          6.44766726e-04, -9.53416529e-05, 1.34672690e-03, 0.,
          8.00563372e-04, 5.86869195e-04, 1.45653263e-03, 0., 0.,
          6.54115356e-05, 5.27464226e-03, 1.10028707e-03,
          -5.71973913e-04, 2.27456854e-04, 1.80500874e-03,
          5.92257304e-04, 1.66394733e-04, 6.30495138e-04, 1.15333172e-02,
          1.44100713e-03, 1.32718671e-03, 4.07593237e-04, 1.45408968e-02,
          2.90594227e-03, 9.86898900e-04, 2.89535783e-05,
          -7.73613341e-03, -1.95478462e-03, -7.16147988e-05,
          -5.60844317e-03, 4.07305371e-04, 0., -1.20320612e-04,
          -4.54707886e-04, 0., 0., 0., 0., 0., 0., 3.03785986e-04,
          -8.56037019e-04, 0., 2.21788679e-04, 0., 0., 0.,
          3.15523037e-04, -2.66404822e-04, -3.40896717e-04, 0.,
          1.91380459e-04, 0., 0., 4.07305371e-04, 0., 0., 8.62589572e-04,
          -4.98171663e-04, -4.62266942e-03, -5.16305037e-04,
          -2.76558800e-03, 0., -3.14597514e-06, 0., -1.64837448e-03,
          3.54978343e-04, -9.53416529e-05, 0., 0., 3.78060096e-04, 0.,
          0., 0., 7.03194528e-04, 2.06997764e-04, -9.92948771e-04,
          6.88677013e-04, 0., 0., -9.53416529e-05, -1.03327096e-03,
          1.29385781e-03, 7.39996962e-04, 3.60104896e-04, 0.,
          3.88794718e-03, 4.13047615e-04, 4.38453018e-04, 9.52045200e-04,
          -5.70636056e-03, -2.83666495e-02, -4.33455734e-03,
          -3.12297475e-02, 9.23396670e-04, 0., 7.54242574e-05,
          -9.26331058e-03, 0., -8.07818360e-05, -5.41039451e-04,
          -3.31484247e-03, 6.31651084e-04, -6.80323516e-04, 0.,
          -8.31682002e-04, -1.16696570e-03, -3.84955609e-04, 0.,
          -2.03353725e-03, 0., 0., 0., -2.54612789e-03, 5.86869195e-04,
          -3.05056223e-04, 0., -1.29243685e-03, 7.11091387e-04,
          1.04982813e-03, 0., -5.73488232e-03, -3.03236628e-03,
          -2.21746136e-02, -1.65902264e-03, -2.00070608e-02,
          4.35179769e-04, 3.26270558e-04, 7.31231121e-04,
          -1.43265985e-02, 6.08859002e-04, 0., 0., -2.22743093e-03,
          5.74394129e-04, -6.59022116e-05, 0., -2.92972918e-03,
          1.24680123e-03, -7.07999629e-04, 3.81939142e-04,
          -1.66909304e-03, 5.01601375e-04, 1.20736577e-03,
          -5.10084850e-04, -5.85775543e-03, 4.66094539e-03,
          1.65348325e-03, 0., 2.85401731e-03, 2.98033026e-03,
          2.73926929e-03, 1.68011885e-03, 7.83359725e-03,
          -2.63284752e-03, -8.43748171e-03, 1.55302507e-04,
          1.85393309e-03, -1.00073725e-04, 1.59650401e-04,
          6.64138817e-04, 2.57451809e-03, -7.30085769e-04,
          -1.45838433e-03, 1.20786869e-03, 1.39885431e-03,
          2.65926379e-03, 6.90996472e-04, -4.21997742e-04,
          -5.00596128e-03, -9.75001324e-03, 6.39691309e-04,
          -2.89993663e-03, 8.00563372e-04, 5.60948706e-07, 0.,
          8.16553307e-04, 0., -1.67085149e-03, 0., 0., 6.95393304e-04,
          4.02280968e-03, 0., 5.90864103e-03, -1.89537765e-04,
          1.91418012e-03, -3.74642317e-03, 8.00563372e-04,
          6.02891494e-04, 0., 0., 0., 4.07305371e-04, -3.32119199e-03,
          0., 0., 0., 1.68270024e-04, 0., 2.38610059e-03, 5.86869195e-04,
          -1.03307946e-03, 0., 3.80925252e-04, 5.79721003e-04,
          1.31613121e-03, 0., 0., 1.24156952e-03, -1.02930062e-03, 0.,
          0., 0., 2.00731424e-03, 0., -1.04358727e-02, -1.21318072e-03,
          2.01330800e-03, 2.65851762e-04, 0., 1.37495750e-03, 0., 0.,
          -2.32145030e-04, 0., 0., 0., 0., 0., -6.41647144e-04,
          -2.14669015e-03, 0., 6.88677013e-04, -5.94650337e-04,
          4.07305371e-04, 0., 0., 0., -2.66404822e-04, -8.56172337e-05,
          0., 0., 0., 0., 0., 0., 0., -4.14125301e-04, 2.58871092e-04,
          7.07195560e-03, 3.45597276e-03, 2.07782956e-03, 1.13683846e-03,
          -1.34006992e-03, 0., -1.66008633e-03, 6.54115356e-05,
          -5.89632196e-04, -3.14087491e-04, -8.56172337e-05, 0., 0., 0.,
          -2.26437976e-03, 2.01305910e-03, -7.42376735e-03,
          6.93856273e-04, 6.28464390e-04, 6.43288600e-04,
          -7.24131765e-04, 0., 2.40671274e-04, -1.82137985e-04, 0., 0.,
          0., 0., 2.58871092e-04, -1.53661217e-03, -2.78726220e-03,
          -5.79331710e-04, 1.39870576e-03, 2.68602581e-03, 0.,
          2.17589884e-04, 0., 0., -2.66404822e-04, 0., 0.,
          7.24214828e-04, -2.66404822e-04, -3.12926859e-04,
          1.03654666e-03, 2.99003761e-04, 8.52816564e-04,
          -9.62908030e-04, 2.69894139e-04, -4.80154733e-04, 0.,
          -6.88921893e-04, 0., -9.53416529e-05, 0., 1.16066821e-03, 0.,
          0., 0., -8.11987324e-04, -9.68050910e-04, 7.78249698e-04,
          2.60854373e-03, 8.66283197e-03, 0., -1.19624077e-03, 0., 0.,
          0., 0., 0., 0., 0., 0., 0., 0., 0., 9.11913987e-04,
          -8.56172337e-05, 1.24286325e-03, 9.78427008e-04, 0.,
          -6.80323516e-04, 2.18409681e-04, 4.07305371e-04,
          5.92257304e-04, -1.73104214e-04, 2.03092513e-03,
          1.17544457e-03, 0., 0., 9.99899348e-04, -2.12547090e-03,
          1.25297601e-03, -7.25268153e-04, -6.67035580e-04,
          -6.30877214e-04, 5.54959523e-03, -5.75496408e-04,
          1.20214568e-02, 0., 1.34713082e-05, -1.57303421e-03,
          -2.84813141e-04, 0., 8.09847203e-04, 0., 2.99602328e-03,
          -1.92861375e-03, 4.48299514e-04, -2.84648035e-04,
          3.65448976e-03, 0., 0., 4.28325671e-04, 3.41490348e-04, 0., 0.,
          5.92257304e-04, 7.01357785e-04, 0., 2.35983243e-04, 0.,
          1.78020447e-03, -6.80323516e-04, -2.32973834e-04, 0.,
          5.33510419e-03, -1.09503334e-02, -6.66750129e-03,
          -6.25396206e-04, 3.23891611e-04, -9.36818833e-04,
          -3.62110353e-04, -9.99562675e-04, 6.94256392e-04,
          1.35290716e-03, 2.19700509e-03, -1.03239268e-04,
          1.16151839e-03, 0., -2.39854795e-03, -9.45040840e-04,
          2.00903625e-03, -1.53652183e-03, -2.27964460e-03, 0.,
          -6.72161754e-04, 2.92686222e-04, 1.13646616e-03,
          -5.46056952e-04, 2.86610448e-03, -1.44820567e-03,
          -3.34481220e-03, 0., 1.10659713e-03, -5.59492211e-04,
          -6.13990612e-03, -8.27948190e-03, 4.94673382e-03,
          4.07228526e-03, -1.20014895e-03, -4.84298682e-03, 0.,
          6.48550165e-04, -5.46548472e-05, 6.14611490e-04,
          -1.37353595e-03, 1.45094411e-03, 2.12155306e-03,
          6.01912267e-04, -8.16480897e-05, -4.69189981e-04,
          1.84147723e-03, 4.32579033e-03, 8.48347228e-03, 4.73494641e-03,
          1.36395043e-03, 4.05881234e-04, -9.55402211e-04,
          -5.93891542e-04, -2.32145030e-04, -1.70151773e-03,
          -1.85283963e-04, -3.30105005e-03, 5.37096406e-04,
          1.70686946e-03, 1.67382031e-03, 3.14711710e-03,
          -5.24308998e-05, 5.78875234e-03, 3.27687268e-03,
          2.92686222e-04, 0., 0., 0., 0., 0., 0., 4.28325671e-04,
          2.95889156e-04, 0., -2.18745830e-04, 4.07305371e-04, 0., 0.,
          -9.48779751e-04, 2.79704691e-04, -2.12703289e-05, 0.,
          7.23454694e-04, 0., 2.62515869e-06, 4.28325671e-04,
          -3.26619629e-04, 0., -2.48449738e-03, 7.57667804e-05,
          1.52871676e-03, 0., 1.22261292e-03, 0., -4.68269078e-04,
          4.49324865e-03, -6.21821266e-04, 0., 0., 0., 2.80993903e-04,
          -5.20149479e-05, 0., 0., 0., 0., -9.68050910e-04, 0.,
          4.28325671e-04, 0., -5.78235311e-04, -3.48719477e-05,
          -9.53887939e-04, 0., 0., 0., 0., 0., 0., 0., 4.28325671e-04,
          0., 5.05044998e-04, 0., 4.15323710e-04, -2.18745830e-04,
          3.74465435e-06, -8.89820338e-04, -8.48468917e-04,
          1.45421294e-03, 0., 0., -1.72272394e-03, 0., 0., 0.,
          6.88677013e-04, 0., 0., 0., 1.48018973e-03, 0.,
          -3.23449582e-04, -3.12395860e-03, -2.66404822e-04,
          1.91380459e-04, 2.59108003e-03, 0., 0., 0., -8.56172337e-05,
          2.18409681e-04, 0., 0., 1.56377151e-04, 2.55109509e-03,
          2.49291328e-03, 0., -1.43957918e-03, 3.14167212e-03,
          1.56715652e-03, 3.03785986e-04, -5.47917210e-04, 0.,
          5.96472237e-04, 8.36147228e-04, 6.31793460e-04, 1.02058297e-03,
          -7.35651236e-04, 1.59251469e-03, 0., 0., 0., -1.93723827e-03,
          -8.85504051e-05, -2.11277418e-03, 6.28984591e-04,
          -3.62110353e-04, -1.16160605e-03, -2.27920737e-05, 0., 0.,
          6.88677013e-04, 4.09271219e-04, -1.22422853e-03,
          -1.82137985e-04, 0., 0., 0., -1.06371212e-04, -3.08267470e-03,
          1.14182942e-03, -8.56172337e-05, 0., 2.58871092e-04, 0., 0.,
          2.92686222e-04, 0., 5.92257304e-04, 0., 0., 0., 0., 0., 0.,
          -3.30632669e-04, 9.36068536e-04, -1.41271751e-03, 0., 0., 0.,
          0., 0., 0., 0., 0., -5.63831534e-04, 0., 0., 0.,
          -9.68050910e-04, -9.78704658e-04, 4.91705083e-04,
          2.06766394e-03, 1.21648001e-04, -5.20149479e-05, 0.,
          -1.33791924e-04, 0., 0., 1.59650401e-04, 1.51255762e-03, 0.,
          0., 3.03785986e-04, -4.11811518e-04, 1.50366002e-04,
          -6.35741802e-04, 8.79276486e-05, 6.85475022e-03,
          1.15069095e-03, 0., 0., 0., 0., 0., -3.62110353e-04,
          2.51716498e-04, -2.66404822e-04, 0., -1.16696570e-03,
          1.56377151e-04, 4.56531998e-04, 2.09622737e-03,
          -2.88782438e-04, -6.40435517e-03, -1.42324448e-03,
          -1.43337052e-03, -7.95507513e-04, -1.36540830e-03,
          -5.89632196e-04, -3.76377691e-04, 1.35995436e-03,
          3.24857567e-04, 0., -8.81888845e-04, -6.71654067e-04,
          1.24967110e-03, -4.81872761e-04, 2.25650263e-03,
          5.14160842e-03, -2.62742694e-02, -5.64083271e-03,
          -5.89632196e-04, -5.71973913e-04, -5.89632196e-04, 0.,
          -5.89632196e-04, -1.05486310e-03, 3.12944711e-03,
          -5.05385979e-04, 3.82887374e-04, -2.76533747e-03,
          -1.07714208e-03, -5.71973913e-04, -6.11970027e-04,
          -9.07905027e-03, 1.11821862e-02, 1.76849906e-04,
          9.47246212e-04, 2.03033024e-03, 9.40717175e-04, 1.57900807e-03,
          8.45054165e-04, 2.08719238e-03, 2.27499381e-03, 5.86869195e-04,
          0., 0., 8.80057516e-04, -9.07331589e-04, 8.32283054e-04, 0.,
          6.74424041e-03, 8.00563372e-04, 0., 0., 1.35454105e-03,
          1.08405971e-03, 0., 0., 5.50072361e-03, -2.37253465e-04,
          1.59650401e-04, 0., 3.60343512e-03, 1.18047523e-03, 0.,
          1.97093957e-03, 1.67075265e-03, -3.64904932e-04,
          5.05044998e-04, 1.91380459e-04, -1.82137985e-04,
          -2.18745830e-04, 0., 7.37235241e-04, -6.22403284e-04, 0.,
          2.18409681e-04, 3.54978343e-04, -5.89632196e-04,
          -1.33791924e-04, 0., 0., -3.37197096e-03, -1.58765505e-03,
          6.54115356e-05, 2.92686222e-04, -5.05385979e-04, 0., 0., 0.,
          9.24566004e-04, -6.68467663e-04, 1.60541222e-03,
          1.72824599e-03, -4.05249244e-04, -6.55215990e-04,
          -9.71196918e-04, -2.49986723e-03, -1.21051865e-03,
          1.70778367e-03, 7.57667804e-05, 1.82193215e-03, 0.,
          2.03866162e-03, 3.03785986e-04, 4.71900188e-04, 6.88677013e-04,
          0., 0., 0., 0., 0., 2.35983243e-04, 0., 4.87393845e-04, 0., 0.,
          6.95393304e-04, 0., 0., 0., 3.03785986e-04, -2.38898536e-03,
          0., 0., 0., -5.20149479e-05, 4.28325671e-04, 0., 0.,
          -4.82859416e-03, -3.80586687e-04, 2.29642075e-03, 0.,
          -5.41039451e-04, 1.09730230e-03, 0., 1.01897307e-03,
          -4.17752191e-03, 0., 5.92257304e-04, 4.31711436e-04,
          -6.84236351e-04, 0., 1.07344799e-03, -1.15595299e-06,
          -9.62068886e-03, -1.36600796e-03, 2.82143475e-03,
          1.10801507e-03, 1.05523376e-03, 0., -2.67424941e-04,
          4.72716900e-04, -1.76129974e-02, 6.28161115e-06,
          -3.23835225e-03, -2.49695848e-04, -9.09260288e-03,
          -4.62752883e-04, -1.40671816e-03, -2.45803874e-03,
          8.14635586e-03, 7.76788744e-04, 2.99941073e-03, 4.76952642e-03,
          1.59650401e-04, -1.99483475e-04, 2.94733181e-04,
          -1.58338074e-03, 2.92686222e-04, -5.05385979e-04,
          2.18409681e-04, -1.14886952e-03, 0., -2.66404822e-04, 0.,
          2.47366785e-04, 1.37276330e-03, 7.57667804e-05, 0.,
          4.28325671e-04, 7.57667804e-05, 0., 0., 6.73137140e-04,
          5.40242356e-04, -1.73104214e-04, 0., 0., 0., 5.16759988e-04,
          0., 0., 1.83572259e-03, 1.09988102e-03, 1.34713082e-05,
          9.37481891e-05, 1.81874144e-04, 0., 2.23236973e-04,
          -5.08590019e-04, 6.44766726e-04, 0., 0., 0., 0.,
          2.17589884e-04, 0., -2.17468571e-03, -3.03161563e-03, 0., 0.,
          3.78060096e-04, -3.69644113e-04, 1.59650401e-04, 0.,
          -1.24522718e-03, -7.47909944e-04, -9.68050910e-04,
          -6.80323516e-04, 0., -7.25268153e-04, -9.70559602e-04, 0.,
          -2.86307419e-03, 3.37733142e-03, -6.54126750e-04,
          3.18518723e-03, 1.10294223e-02, 1.95264083e-03, 2.03810679e-03,
          6.54115356e-05, 5.17647341e-03, -5.89632196e-04,
          9.25730332e-04, 0., 5.88575378e-04, 0., 1.44533010e-03, 0.,
          1.42204924e-03, -9.99757089e-04, 1.02190235e-04,
          -8.56172337e-05, 6.24895270e-04, 2.35983243e-04,
          5.92257304e-04, 0., 1.64633186e-03, 3.33282980e-04,
          -1.16696570e-03, 0., 1.31124468e-03, 2.58871092e-04,
          2.59842229e-04, 0., 1.53970928e-03, -5.26996888e-03,
          4.88706678e-03, 2.36708278e-04, 3.23907286e-03, 2.25364463e-03,
          8.49240925e-04, 0., 5.62293641e-03, -5.81178872e-04,
          7.57667804e-05, -1.28666084e-04, 1.56377151e-04,
          3.30802664e-04, 8.17262218e-04, 5.64223505e-04,
          -1.04642543e-03, -2.87214089e-02, 6.69630803e-03,
          -8.41747737e-04, -2.54386221e-04, 4.11793881e-04,
          9.65250365e-04, 5.77569474e-04, -1.43765836e-04,
          -1.84594076e-02, -2.03635124e-03, -2.91307736e-03,
          -2.43731448e-03, -1.98188238e-03, -2.94175372e-03,
          -4.86320397e-03, -2.79948377e-04, 6.64143357e-03,
          -9.92947607e-04, -1.37413817e-03, -1.26141123e-03,
          -3.75076570e-03, 0., 2.92686222e-04, -1.40926582e-04,
          -4.23943438e-03, 0., 0., -1.16696570e-03, -5.90985827e-03, 0.,
          -3.62110353e-04, -7.86547665e-04, -7.11049870e-05, 0.,
          -1.16696570e-03, 0., -1.11830560e-03, 0., 0., 3.54978343e-04,
          -6.07097172e-04, 0., 5.16759988e-04, 0., -4.80363669e-04, 0.,
          0., 0., 4.30515595e-03, 0., -1.43700672e-04, 2.92686222e-04,
          -1.58034411e-04, 5.16759988e-04, -5.41039451e-04,
          -1.06768217e-04, 7.29900348e-05, 0., 0., 0., -9.68050910e-04,
          0., 0., -3.04363057e-04, 3.15912976e-03, -6.59022116e-05, 0.,
          0., -2.96945946e-04, 0., -1.45953003e-04, -2.32145030e-04,
          -6.74405927e-03, 0., 1.70081039e-04, 0., -2.21507522e-04,
          -6.78490149e-04, -3.71131324e-03, -2.80286968e-05,
          -4.12723050e-03, -5.58188731e-05, 1.09798263e-03,
          -5.87626768e-04, -7.01282232e-04, 5.92257304e-04, 0.,
          -4.00883815e-04, -2.86976283e-04, 0., 0., -7.12299778e-04,
          -6.80323516e-04, 0., 0., 0., -4.48942446e-04, 8.55043705e-04,
          -5.63831534e-04, 6.44766726e-04, 0., 0., 0., 5.16759988e-04,
          8.79882893e-04, 0., 0., 0., -4.57451999e-04, 0., 0., 0.,
          1.01939822e-02, 6.62153179e-05, -6.83803883e-05,
          3.60104896e-04, 9.36254684e-04, 0., 0., -1.16696570e-03,
          6.54115356e-05, 0., 0., 0., -5.89632196e-04, 0., 0., 0.,
          2.14652866e-02, 8.85872985e-04, 1.13793509e-03, 1.17818220e-03,
          2.93743284e-03, 0., 0., 6.27714326e-04, 1.45071857e-02,
          1.14225014e-03, 6.24696200e-04, 1.91380459e-04, 5.01812343e-03,
          0., -2.66441354e-03, -1.25229743e-03, -1.51418254e-03,
          -6.36273902e-03, -2.85780383e-03, -1.43156378e-02,
          -1.69152522e-03, -3.85381933e-03, 5.81817527e-04,
          -1.25533184e-02, 5.49425080e-04, -5.20149479e-05,
          -7.48070233e-05, -2.21489952e-03, -1.42944849e-03,
          1.52507477e-04, 0., -2.90746917e-03, 1.14458206e-03, 0., 0.,
          -1.03536353e-03, 0., 0., 0., 9.73054208e-04, -1.55768311e-03,
          -2.08055440e-04, -5.41039451e-04, -2.32145030e-04,
          -3.14597514e-06, -1.35663978e-03, 0., -3.50881554e-03,
          4.80115879e-03, 2.62172730e-03, 1.19372201e-03,
          -3.68497829e-04, 0., 3.15523037e-04, -8.07818360e-05,
          -2.78275739e-03, 1.69737235e-04, 0., 0., -4.42892197e-04,
          -1.17450184e-03, 5.92257304e-04, 0., 0., -3.25057044e-04,
          -2.05183914e-03, -5.58502623e-04, -1.28792506e-03,
          5.16759988e-04, 1.91380459e-04, -8.56172337e-05,
          8.75026162e-05, -1.00047204e-04, -1.53900799e-03,
          5.16759988e-04, -1.82137985e-04, -2.88200215e-03,
          -1.32651220e-03, 0., -7.73621956e-03, -4.26003244e-03,
          2.97440973e-04, -5.14055369e-04, -7.18549220e-03,
          -1.05212862e-03, 1.40908558e-03, -6.22403284e-04,
          -5.83433406e-03, -1.63616240e-03, -7.52229651e-04, 0.,
          -4.57660807e-03, -1.67814520e-04, 5.69311087e-05, 0.,
          -3.08517396e-04, 1.43572094e-03, -1.30121387e-03,
          2.46515032e-04, 0., 2.25671101e-04, -2.48353230e-04,
          -5.41039451e-04, -3.94244771e-03, 2.67147040e-03,
          -1.24683650e-03, 1.91380459e-04, -1.54684449e-03,
          5.99675113e-04, -1.48855278e-03, -7.73184467e-04,
          -5.25513291e-03, 1.60732958e-02, -2.40379386e-03,
          1.32704433e-03, -2.49906094e-03, 6.54115356e-05,
          7.39835377e-04, 0., 2.52981158e-03, 1.11998210e-03,
          1.59996119e-03, 0., -2.83735892e-04, 8.48327414e-04,
          -5.80096443e-04, 6.47664594e-04, -1.20915589e-03,
          2.47430354e-02, 5.41104004e-03, 2.07210425e-03, 2.59063760e-04,
          2.15801271e-03, 3.92205268e-03, -7.17005387e-05,
          -2.22125347e-03, 1.71636548e-02, 5.43890428e-03,
          1.67149340e-03, 1.25297776e-03, 2.22125673e-03, 2.58543529e-03,
          3.71352886e-04, -1.17542716e-02, 2.06378801e-03,
          -1.40935101e-03, -1.77824334e-03, 9.91943874e-04,
          -1.30227592e-03, 1.04583043e-03, 9.41040635e-04,
          6.54115356e-05, 8.30737190e-05, 3.46633606e-04, 0., 0.,
          -1.99949439e-03, 1.31987187e-03, 3.94110521e-03,
          5.79724787e-03, -1.98409613e-03, -2.62708194e-03,
          -1.36955979e-03, -9.34542986e-05, -1.20427751e-03,
          5.92257304e-04, -4.58898488e-04, 9.88079584e-04,
          1.26162358e-03, -3.40899685e-03, 4.06886160e-04,
          3.62390740e-04, -3.54386517e-03, -5.63831534e-04,
          4.96686902e-03, -2.07069307e-03, 1.13296171e-03,
          5.42152789e-04, 2.92686222e-04, -6.14911958e-04,
          -4.36120463e-04, 0., 0., 3.35806457e-04, 4.07305371e-04,
          -2.28635059e-03, 3.46633606e-04, 0., -1.05039886e-04,
          1.91380459e-04, 7.06839550e-04, 8.37742758e-04,
          -1.17526692e-03, -1.28424598e-03, 6.09776063e-04,
          -6.22403284e-04, -8.94820376e-04, 0., -7.15139264e-04,
          -1.05879924e-04, 5.28994249e-04, 6.49030844e-04,
          -1.70748099e-04, 0., -5.49434824e-03, 2.53864448e-03,
          -2.57047894e-03, -4.29371372e-03, -4.59266535e-04,
          3.07696973e-05, 3.62423452e-04, 6.31793460e-04, 3.46633606e-04,
          0., 2.18409681e-04, 0., 0., 0., 0., 0., 0., 0.,
          -9.07331589e-04, 8.28240591e-04, 1.71052379e-04,
          -5.33829792e-04, 7.14764523e-04, 0., 0., 0., 4.03524580e-04,
          0., 7.57667804e-05, 0., 0., 0., 0., 0., -3.08076129e-03,
          -1.22651679e-03, 3.65388836e-03, -1.13269396e-03,
          4.28325671e-04, 3.20408639e-04, 1.34713082e-05, 0., 0.,
          -6.76399213e-04, 0., -1.05366821e-03, 0., 0., 0.,
          -6.75249379e-04, 6.54238567e-04, 1.97378965e-03,
          5.54553792e-03, -6.86550920e-05, 1.39358803e-03,
          2.58871092e-04, 1.25623005e-03, 0., 3.03785986e-04,
          7.60237512e-04, 8.36147228e-04, 0., 0., -3.62110353e-04,
          -6.22403284e-04, 4.89656115e-04, -3.12256772e-04,
          -1.67297502e-03, 1.51648140e-03, 2.83349655e-03, 0.,
          2.18409681e-04, 5.86869195e-04, 0., 2.18409681e-04,
          6.46735367e-04, 0., 0., 0., 0., -4.80154733e-04,
          6.44766726e-04, 1.34949805e-03, 4.07551276e-03,
          -2.31324183e-03, -8.84309295e-04, -6.17786893e-04,
          -1.82137985e-04, 6.88677013e-04, 0., -4.14642127e-04,
          4.12905240e-04, 2.17589884e-04, 0., 0., 0., 5.75885388e-05, 0.,
          1.91203051e-03, 2.01771851e-03, 6.82519749e-04, 6.95393304e-04,
          0., 3.46633606e-04, 0., 0., 0., 5.86869195e-04, 0., 0., 0.,
          3.46633606e-04, 2.23004157e-04, 0., 1.56377151e-04,
          1.91380459e-04, 9.70372348e-04, 1.68509211e-03, 3.54978343e-04,
          0., 0., 0., 0., 0., 0., 0., 1.34713082e-05, 0.,
          -7.54111912e-04, 0., -2.40627560e-03, -5.45900955e-04,
          2.66314764e-03, 3.23283696e-03, 5.26355114e-04,
          -5.05385979e-04, 0., 0., 1.34713082e-05, 5.65043301e-04, 0.,
          0., 0., 4.28325671e-04, 0., 0., -6.45195367e-04,
          2.56895111e-03, 2.34741194e-04, -5.87878574e-04,
          -2.83979694e-04, 2.95889156e-04, 6.19309023e-04, 0.,
          -1.38608937e-03, 0., 0., 0., 0., 0., -6.59022116e-05, 0.,
          -3.75130307e-03, 1.29235350e-03, -3.88427614e-03,
          5.35556767e-03, 1.89809443e-03, 6.44613244e-03, 0.,
          1.37909967e-03, -1.23580615e-03, 6.04253821e-03,
          -2.52125273e-03, -3.01964639e-04, 1.72840373e-04,
          1.51741679e-03, -1.31743285e-03, -1.99490599e-03,
          -4.03021742e-03, 1.36807123e-02, -7.50440406e-03,
          -6.27821870e-03, -1.77569233e-03, -2.23870552e-03,
          1.20043836e-03, 5.13137842e-04, -2.52487441e-03,
          4.07718093e-04, 9.51542534e-05, 3.65507416e-03,
          -1.96247315e-03, -1.84097525e-03, -3.20781441e-03,
          -3.14392964e-03, -6.54406799e-03, -8.92031379e-03,
          -9.95558873e-03, -7.99478777e-03, 8.60259970e-05,
          -4.91368677e-03, -3.61093716e-03, -4.24523256e-04,
          -1.14439789e-03, -3.46622895e-04, -1.60104886e-04,
          1.37161382e-03, -8.56172337e-05, 1.45425764e-03,
          -2.32145030e-04, 6.31793460e-04, -4.81075468e-03,
          3.81387747e-03, -2.18752888e-03, -1.14704843e-03,
          -8.07818360e-05, -4.60277917e-03, -7.86636723e-04,
          8.00563372e-04, -6.23686865e-05, -9.33262636e-04,
          -1.67527964e-04, 1.09325757e-03, -5.60697983e-04,
          -3.56222340e-03, 1.53188338e-03, 2.23236973e-04,
          4.98936558e-03, -6.12261984e-03, 4.14809398e-03,
          2.83001427e-04, 0., 0., 0., 0., 1.91380459e-04, 6.44766726e-04,
          2.92686222e-04, 0., 0., 0., 0., 0., 4.84066666e-04,
          -5.16876054e-04, 1.62447768e-03, -8.56172337e-05, 0.,
          -6.59022116e-05, 0., 0., 0., 0., 2.83821224e-04, 0.,
          6.59386860e-04, 0., 0., -1.16696570e-03, 3.19473911e-03,
          -6.59781916e-04, -6.66832924e-03, 1.59849727e-03,
          -5.05385979e-04, 2.92686222e-04, 0., 0., -2.62919813e-04,
          -6.80323516e-04, 0., 0., 0., 0., 0., 0., -7.94532942e-04,
          3.60008708e-04, 3.03785986e-04, -7.16543364e-05,
          -2.62564834e-04, 0., 0., 0., -5.71973913e-04, 0., 0., 0., 0.,
          0., 0., 0., 0., 9.96237577e-05, 9.81572433e-04, 3.02534812e-04,
          -1.16696570e-03, 0., 0., 0., 7.38678063e-05, -5.05385979e-04,
          0., 0., 0., 0., 0., 0., -6.84973842e-04, 0., 6.50699716e-04,
          -5.41039451e-04, 0., 0., 5.86869195e-04, 0., 0., 0.,
          1.89748651e-03, 0., 0., 0., 1.30694197e-03, 0., 1.39363226e-03,
          1.60782496e-04, -2.29162467e-03, -6.79280702e-03,
          -5.71973913e-04, -1.15703582e-03, 0., 0., -6.73253206e-04,
          -2.48655933e-03, 2.23236973e-04, 6.54115356e-05,
          5.86869195e-04, -1.68666680e-04, 0., 1.77884800e-03,
          -1.26642687e-03, -1.59113973e-04, 8.24105053e-04,
          5.12324856e-04, 0., 0., 0., 0., 0., 3.46633606e-04,
          1.05037168e-03, 0., 0., 0., 1.43235677e-03, 0., 1.40399393e-03,
          9.79672041e-05, 2.88621476e-03, -6.80323516e-04,
          -2.66404822e-04, 0., 0., 0., 4.07305371e-04, 1.34713082e-05,
          -6.22403284e-04, 0., 0., 0., 0., 0., 1.13669608e-03,
          4.12045134e-04, 0., -1.63942843e-03, 0., -6.74673356e-04, 0.,
          0., 0., 0., 1.01272797e-03, 0., 0., 0., 0., 0.,
          -1.39665604e-03, -1.29606237e-03, -3.13937373e-04,
          -9.93272988e-04, -1.36600796e-03, -1.25943532e-03,
          -2.18745830e-04, 5.86869195e-04, -1.21898064e-03,
          -1.03573911e-04, 0., 7.11091387e-04, 7.57667804e-05,
          -1.82137985e-04, 0., 5.92257304e-04, -9.51298629e-04,
          -2.89549294e-04, 6.52628660e-04, -3.96853255e-04, 0.,
          -5.05385979e-04, 0., 6.95393304e-04, 5.92257304e-04, 0.,
          3.03785986e-04, 5.86869195e-04, 0., 0., 6.54115356e-05,
          4.41646669e-04, -1.68369792e-04, -2.13411264e-03,
          1.57960895e-02, -7.00555102e-04, -5.08241319e-05,
          -1.53606909e-03, 1.32718671e-03, 4.83072159e-04,
          3.27926641e-03, -5.77029446e-03, 6.19164493e-05,
          -1.83223293e-03, -5.20149479e-05, 1.47637576e-04,
          1.14504877e-03, -1.49575155e-03, -2.51515466e-03,
          -3.00421054e-03, 1.76420417e-02, 8.85765441e-03,
          -4.27065534e-04, 1.20305049e-03, 7.46259349e-04,
          2.57293717e-03, -2.19954830e-03, -2.57755001e-03,
          6.44992618e-03, 7.03326123e-06, 6.19005878e-04,
          -3.06880247e-04, 7.62509648e-03, 1.25851983e-03,
          2.38446472e-03, -5.09498641e-03, -8.48506950e-03,
          -9.86324856e-04, -2.99227377e-03, 1.66486192e-03,
          -1.40578544e-03, 3.71676942e-05, -3.83054325e-03,
          1.77526020e-03, -2.30133141e-04, 0., -1.73104214e-04, 0.,
          -4.43308055e-03, -5.20149479e-05, -1.50525314e-03,
          2.85994902e-04, -3.42938839e-03, -5.41039451e-04, 0., 0.,
          -1.41271751e-03, 0., -1.32765213e-03, 1.00010075e-03,
          -3.96035146e-03, 0., -1.38748635e-03, -5.05385979e-04,
          -6.30404707e-03, 0., -3.14506702e-03, -3.71262111e-04,
          -6.41716644e-03, 5.96881728e-04, 9.91755980e-04,
          -3.39689112e-04, -2.01531919e-03, -1.17917160e-04, 0.,
          -1.10255799e-03, -7.76620058e-04, -5.38233842e-04,
          -9.07331589e-04, 0., -8.98618484e-04, -5.20149479e-05,
          2.19316175e-03, -2.47520162e-03, -1.08476845e-03,
          2.23236973e-04, 4.49313025e-04, -3.49059846e-04,
          6.84440369e-04, -1.08043582e-03, 1.71704520e-03,
          -8.54542071e-04, -1.56370364e-02, -1.02286483e-03,
          -7.61860749e-04, -3.06896138e-04, -1.40992282e-02,
          -6.94932241e-04, -5.71396062e-03, -7.19254080e-04,
          3.91332759e-03, 9.35642689e-04, -8.38726875e-04,
          2.92686222e-04, 0., -1.14115514e-03, 7.57667804e-05,
          -8.07818360e-05, 0., 6.44766726e-04, 0., -8.56172337e-05,
          -3.62110353e-04, 0., 0., -9.07331589e-04, -6.59022116e-05,
          -9.68050910e-04, 2.58871092e-04, -1.41271751e-03,
          -1.73104214e-04, 0., 0., 0., 3.39485385e-04, 0., 0., 0.,
          -1.64837448e-03, 0., -2.66404822e-04, 0., 1.43645296e-03,
          2.67322757e-04, -1.35239243e-04, 1.76728901e-03,
          -1.34864438e-03, 0., 0., 3.03785986e-04, -8.07264514e-05,
          4.28325671e-04, 0., 0., -1.82137985e-04, -1.82326810e-04,
          -2.32145030e-04, -2.18745830e-04, 4.99643393e-05,
          -3.37859453e-03, 1.15828901e-04, -1.32796777e-04,
          -2.55477824e-03, 0., -1.33791924e-04, -1.48787396e-03,
          1.06259435e-03, 0., -4.80154733e-04, 2.74595252e-04,
          -1.50227696e-02, -4.82955744e-04, 7.20559561e-04,
          -5.19888615e-03, 4.44391510e-03, 2.80809612e-03,
          2.25345226e-04, 2.57222709e-04, 3.71969095e-03,
          -6.73253206e-04, 0., -4.66941623e-04, -6.25549234e-04,
          -1.61157295e-04, 0., -2.39006418e-04, -9.59346537e-04, 0., 0.,
          -3.62110353e-04, -1.09909881e-04, -4.90677337e-07,
          1.91380459e-04, 1.20786869e-03, 0., 0., 0., 6.31793460e-04, 0.,
          4.28325671e-04, -5.57400926e-04, -1.01574091e-03,
          -2.18745830e-04, 0., 0., -5.41039451e-04, 3.28329904e-03,
          8.40530673e-04, 2.95889156e-04, 5.63984911e-04,
          -8.95037781e-04, 0., 0., 6.78298878e-04, -5.16876054e-04,
          5.86869195e-04, 0., 0., -4.98549896e-04, -1.68408104e-03, 0.,
          0., 1.76848576e-03, 1.58339646e-03, 0., -3.86324275e-04, 0.,
          7.08140433e-04, -2.18745830e-04, -8.56173399e-04,
          -2.90253828e-03, 2.08196230e-03, -2.32145030e-04,
          8.80958571e-04, 4.75597277e-04, -5.89129399e-04,
          -1.08147207e-04, -2.78936559e-03, 5.27577708e-03,
          1.17026619e-03, -2.41967165e-04, 6.88574463e-03, 0.,
          5.17098187e-03, -6.59022116e-05, 1.24824187e-03,
          9.80104523e-05, 1.23399042e-03, 0., 7.03090860e-04, 0., 0., 0.,
          -1.73104214e-04, 5.75640472e-04, 7.51063519e-04, 0.,
          -5.15193329e-04, 0., 0., 0., 5.16759988e-04, 9.82502825e-04,
          -3.43346677e-04, 0., 3.29219666e-03, 0., 4.60163137e-04,
          -1.33791924e-04, 5.93617733e-04, 6.01492589e-03,
          3.93667864e-03, 6.95393304e-04, 1.16715180e-02, 4.67697770e-04,
          4.84101038e-04, 0., 2.92294566e-03, 4.61364281e-04,
          6.21163892e-03, 0., 7.59424351e-04, 2.10271915e-04,
          1.40353374e-03, 4.07305371e-04, 5.92257304e-04, 3.83991771e-03,
          4.05095238e-03, 1.19227485e-03, 3.90848145e-03, 8.79555417e-04,
          2.74764793e-03, 3.07287963e-04, 1.17429683e-03, 7.72882579e-03,
          4.43298463e-03, -7.73858221e-04, 4.21737321e-03,
          1.41410390e-03, 1.24238362e-03, 2.87489174e-03, 6.12568622e-03 ]
      - [ -3.02677974e-03, 3.28035117e-03, -2.66638846e-04,
          5.40258014e-04, -3.48362513e-03, 0., 1.03901175e-03,
          -1.00641031e-04, 5.71773795e-04, 1.24044286e-03,
          7.87010358e-04, 0., 2.40982673e-03, 0., -6.58853771e-03,
          -6.23465935e-03, 3.61081911e-03, 2.38338555e-03,
          -6.52348343e-03, -9.77187185e-04, -2.84941401e-03, 0.,
          4.28392785e-03, 0., 4.14034352e-03, 1.78012036e-04,
          2.87590210e-05, 8.45771923e-04, 1.98951201e-03,
          -1.14705088e-03, -4.27745945e-05, -1.73791160e-03,
          4.20650886e-03, 1.45476908e-04, -5.22063056e-04,
          -2.45241029e-03, -8.98859755e-04, 0., 0., 0., -1.11217960e-03,
          0., 8.72458098e-04, 0., 3.62924882e-04, 0., -3.89711087e-04,
          -1.29343092e-03, 3.12497094e-03, 3.11931409e-03,
          -3.03279562e-03, -7.96331005e-05, 1.01360190e-03, 0.,
          -2.01698532e-03, 0., -4.38593887e-03, -9.32122057e-04,
          -1.42740458e-03, 1.03878893e-03, 1.20622367e-02,
          4.67625679e-03, 2.27232766e-03, -4.18982643e-04,
          -6.80031860e-03, 2.81834975e-03, 3.06607177e-03,
          -2.38332403e-04, 0., 0., 0., 0., 5.57957566e-04,
          4.17551782e-04, -9.84668499e-04, 0., 1.06454571e-03, 0.,
          -1.20825076e-03, -1.35599775e-03, 1.36559713e-03, 0.,
          -2.43361952e-04, 1.23268284e-03, -1.00411416e-03, 0., 0.,
          -3.78696481e-04, -6.21750904e-03, 5.99786290e-04, 0.,
          8.72458098e-04, 2.57931912e-04, 1.02281617e-03, 1.99123193e-03,
          6.59176265e-04, -5.85834309e-03, 9.90957196e-05,
          2.90934229e-03, 4.79719602e-04, 0., 0., 0., 7.80550297e-04,
          -2.42254161e-03, 1.33718573e-03, 2.91960849e-03, 0.,
          9.76236479e-04, 0., -1.07336650e-03, -1.40328848e-05,
          -2.05747643e-03, 3.13420570e-03, 5.11771301e-04,
          9.77428164e-04, 5.70381409e-04, 9.27618763e-04,
          -2.12816661e-03, -1.29026873e-03, -7.71675864e-03,
          9.99824610e-04, -4.80518397e-03, 1.12371170e-03,
          -3.87348887e-03, -4.83719137e-04, 1.79855619e-03,
          -4.55742469e-03, -3.03334033e-04, -1.00399033e-04,
          1.47167957e-04, 3.92368948e-03, 0., 0., 0., 2.56300787e-03,
          1.49029307e-03, -2.79195630e-03, 0., 0., -8.98859755e-04, 0.,
          -4.84820269e-03, -5.22335339e-03, 0., 0., 0., 2.36977736e-04,
          0., 0., 0., 9.58441058e-04, 2.44559045e-03, 0., 0.,
          -6.55921118e-04, -1.76170273e-04, -1.86790153e-03,
          5.49751392e-04, -2.73770490e-03, 1.00557541e-03,
          -1.65644323e-03, 1.30209855e-05, 1.76953664e-03, 0., 0., 0.,
          0., 8.45771923e-04, 9.74596012e-04, -1.95174373e-03,
          -9.06581641e-04, 0., 0., -4.56576294e-04, 7.48982944e-04,
          -6.31321396e-04, -1.00641031e-04, 0., 0., -2.04656366e-03, 0.,
          0., -1.35624048e-03, -1.11596065e-03, 1.74875720e-03,
          -5.91360847e-04, -1.63546429e-04, -3.77906836e-04,
          1.60394399e-03, -4.38421528e-04, -2.07108795e-03,
          -1.75714563e-03, -3.16269835e-03, -5.81266591e-04,
          1.88093912e-03, -1.95174373e-03, 0., 0., -5.84455447e-05,
          2.11290084e-03, 0., -5.37885993e-04, 0., 6.72199239e-04, 0.,
          3.00068787e-04, 2.67445878e-03, -5.91360847e-04, 0., 0.,
          2.36977736e-04, 0., 0., 0., -5.91360847e-04, 1.06794911e-03,
          2.67267722e-04, 0., 0., 5.80594759e-04, -9.72632726e-04, 0.,
          -2.34254193e-03, -6.66821422e-03, -1.53110335e-02,
          1.10605010e-03, 1.31695718e-02, 0., -1.39242073e-03,
          2.15450054e-04, 5.63751440e-03, 8.46124603e-04, 2.35683960e-03,
          -8.81936518e-04, -3.04233487e-04, 7.08202890e-04,
          -9.82715865e-05, -3.16914148e-03, 1.57094486e-02,
          -1.61724933e-03, -8.02495517e-03, 3.65323666e-03,
          7.86823314e-03, 8.61686247e-04, 4.76895548e-05,
          -5.08837029e-03, 2.92880624e-03, 5.35700063e-04,
          -9.42929648e-04, -6.19993225e-05, 1.65979203e-03,
          2.72023934e-03, -1.01208850e-03, 9.45497013e-04,
          9.75735951e-03, 2.54823174e-02, 7.80849112e-03,
          -2.10253289e-03, 5.99686243e-03, 9.33335337e-04, 0.,
          1.58968708e-03, 1.00035290e-03, 4.73430700e-04, 0.,
          -9.06581641e-04, 1.59448711e-03, -1.70875748e-03,
          -5.91360847e-04, -3.38069489e-03, -4.00841050e-03,
          4.09687823e-03, 2.56886962e-03, 1.23268284e-03,
          -1.32622011e-03, -1.31477776e-03, 4.73430700e-04,
          -4.76074580e-04, 3.84042913e-04, -5.56021638e-04,
          4.98093796e-05, -5.65603958e-04, -9.47895693e-04,
          -7.75469816e-05, 7.87010358e-04, 1.90971550e-05,
          -4.05928306e-03, -4.25429689e-03, -1.09080621e-03, 0.,
          4.98093796e-05, 0., 0., 5.40889276e-04, 0., 0., 0., 0., 0., 0.,
          0., 0., 0., -1.08994218e-03, 8.89649556e-04, 0.,
          3.93891125e-04, 0., 0., -5.81266591e-04, 2.26519682e-04,
          1.22349488e-03, -1.13106973e-03, 4.20777033e-05, 0., 0., 0.,
          4.42494464e-04, -5.16757835e-04, 8.72301345e-04,
          -1.73775799e-04, 0., 4.25090373e-04, 0., 0., -1.05214294e-03,
          0., 0., 0., 0., 0., 0., 0., 2.90689844e-04, 7.83585245e-04,
          1.21203717e-03, 1.22349488e-03, 2.26519682e-04, 0., 0., 0., 0.,
          0., 0., 0., 2.26519682e-04, 1.24044286e-03, 0., 0.,
          3.39453254e-04, 1.49656451e-04, -9.41766892e-04,
          -5.03681134e-04, 0., 1.03878893e-03, 0., 0., 1.78012036e-04,
          0., 0., 0., 0., 0., 0., 0., 0., 0., -7.69029930e-03,
          -3.88260931e-03, 0., 0., 0., 0., 0., 0., -4.89176903e-03,
          -2.51353369e-04, -1.04207755e-03, 0., -3.62618099e-04, 0.,
          -7.46058533e-04, 2.89643882e-04, 3.58633487e-03,
          5.61683625e-03, -9.32122057e-04, 1.25592598e-03, 0.,
          2.67267722e-04, 1.23268284e-03, 1.39090873e-03,
          -5.91360847e-04, 2.57568554e-05, 0., 1.83763320e-03, 0.,
          -1.11783517e-03, 0., 1.72472466e-03, 7.71194277e-03,
          -3.02345230e-04, 0., 2.43525649e-03, 0., 1.03878893e-03, 0.,
          6.19891100e-04, 0., 1.20679222e-04, 0., 0., 4.29494190e-04,
          7.80550297e-04, -9.32122057e-04, -7.21926481e-05,
          -7.58954743e-03, 2.42893840e-03, 0., 4.21407021e-05, 0., 0.,
          0., 0., -3.50191927e-04, 0., 0., 0., 0., 0., 0., 0.,
          -2.28089560e-03, 7.72205181e-04, 0., -5.96639838e-05, 0.,
          4.17551782e-04, 0., 0., 0., 0., 0., 0., 0., -6.55921118e-04,
          0., 1.49982399e-03, 9.08527698e-04, 2.15436821e-03,
          7.87010358e-04, -2.41302070e-03, 0., 4.17551782e-04, 0.,
          -1.95174373e-03, 0., 1.03878893e-03, 2.67267722e-04,
          -3.91588866e-04, 0., 0., 0., 2.36977736e-04, -4.02737083e-03,
          3.71049694e-03, -7.06380059e-04, 5.31072030e-03, 0.,
          -4.25524369e-04, 0., -6.42478175e-04, 0., 0., 0., 0., 0.,
          8.72458098e-04, 0., 1.27058814e-03, -1.30834682e-02,
          -2.70106625e-02, -7.80214323e-04, -2.10488238e-03, 0.,
          7.47036247e-04, 0., 4.79637226e-03, 1.01710903e-04,
          -2.29234007e-04, 0., 0., 0., 4.29494190e-04, -7.95720087e-04,
          2.67267722e-04, 9.56675131e-03, -1.50312176e-02,
          7.51008512e-04, -5.95466653e-03, 0., -3.22447368e-03, 0.,
          -7.14055146e-04, 5.66782057e-03, -3.49275442e-03,
          -5.66914037e-04, 2.47497717e-03, -4.29659936e-04,
          -1.91228150e-03, 6.94129383e-03, 2.24689278e-03,
          8.67395569e-03, -4.41301987e-03, 0., 2.02897936e-03,
          6.19891100e-04, 0., 0., 1.47167957e-04, 0., 1.40044140e-03, 0.,
          0., 0., 0., 0., 0., 1.14443442e-02, 4.17169370e-03,
          1.04247265e-04, 1.65298907e-03, 0., 0., 0., 0., 1.47167957e-04,
          7.87010358e-04, 1.59448711e-03, 0., 0., 1.23268284e-03,
          2.10658624e-03, 1.47167957e-04, 4.33406746e-03,
          -5.25468262e-04, 0., 0., 0., 0., 0., 0., 0., 0., 0., 0., 0.,
          0., 0., 0., 1.31921668e-03, -5.02269482e-04, 0., 0.,
          -6.75617310e-04, 0., 0., 0., -9.38282232e-04, 0.,
          2.36977736e-04, 7.80550297e-04, 9.74596012e-04, 0.,
          -1.70875748e-03, 0., -2.38407706e-03, 1.20640441e-03, 0., 0.,
          -3.50191927e-04, 0., 0., 0., 0., 9.74596012e-04, 0., 0., 0.,
          0., 0., 0., 1.23268284e-03, 0., 0., 0., 0., 0., 0., 0., 0., 0.,
          0., 0., 0., 0., 0., 0., -2.02071224e-03, -8.99714185e-04,
          1.37147249e-03, 0., 0., -7.96331005e-05, 0., 0., 0., 0., 0.,
          0., 0., 0., 0., 0., 8.40394013e-03, -5.32219070e-04, 0., 0.,
          0., 6.19891100e-04, 0., 0., -9.52377100e-04, 1.59045495e-03,
          0., 0., 0., 1.50771055e-03, -3.78211815e-04, 0.,
          -5.27169730e-04, 3.09517421e-03, 0., -1.18272169e-03, 0.,
          1.07665418e-03, 0., 1.20716915e-03, 0., 0., 0., 0., 0., 0., 0.,
          1.47167957e-04, 1.09647936e-03, 7.02962046e-04, 0., 0., 0., 0.,
          0., 0., 0., 0., 0., 0., 0., 0., -4.32336907e-04,
          1.32603594e-03, -4.28417139e-03, -1.17280078e-03, 0.,
          -2.47960258e-03, 0., 0., 0., 0., 0., 0., 0., 0., 0., 0., 0.,
          0., 2.61133024e-03, 9.16308898e-04, 0., -5.07289427e-04, 0.,
          2.01989285e-04, 0., 0., 0., 0., 0., 0., 0., 0., 0., 0.,
          -6.42095692e-05, -5.91294607e-03, 0., 7.93502957e-04, 0.,
          -9.32122057e-04, 0., -1.98947717e-04, 0., 1.78012036e-04, 0.,
          -4.32336907e-04, 0., -3.64841137e-04, 0., 1.35430775e-04,
          -1.30944920e-03, -2.10260786e-03, 0., 1.30209855e-05, 0., 0.,
          0., 1.04247265e-04, 0., 0., 0., 0., 0., 0., 0., 0.,
          3.33072618e-03, 2.37969588e-03, -1.98947717e-04,
          -7.89680239e-03, -1.81356224e-03, 1.65808748e-03,
          -3.89711087e-04, 4.18084534e-03, -1.98947717e-04,
          1.05875137e-03, 0., -1.32211554e-03, 0., -6.58856588e-04, 0.,
          -7.06760539e-03, -1.97951365e-02, -1.62498304e-03,
          -1.14656787e-03, -1.15313986e-03, 8.54068785e-04,
          3.33755510e-04, 0., -2.97363172e-03, 6.64005638e-04,
          -3.35187605e-03, 0., -1.81351742e-03, -7.96331005e-05,
          2.89724302e-03, 3.74827068e-05, -2.06238241e-03,
          2.72969995e-03, -3.89820081e-04, 5.67098567e-03,
          -8.71717581e-04, 2.25433870e-03, -3.29167186e-03,
          3.35341133e-03, 8.57507065e-03, 1.61170342e-03,
          -3.08833225e-03, -4.14891721e-04, 1.13630027e-04,
          2.67961738e-03, 1.13820436e-03, 1.02180510e-03, 5.81477676e-03,
          5.74756647e-03, -1.57280025e-04, 0., 8.19407171e-04, 0., 0.,
          2.24122894e-03, 4.21407021e-05, 6.45265449e-04, 9.08650807e-04,
          0., 0., 1.10563077e-03, 7.04990875e-04, -5.30042511e-04,
          3.61950457e-04, -2.59226817e-03, -4.80844552e-04, 0., 0., 0.,
          0., 0., -3.89711087e-04, 0., 0., 0., 7.04990875e-04,
          4.14989772e-04, 0., -7.56562164e-04, 2.38998851e-04,
          -2.50070076e-03, 1.04247265e-04, 0., 0., 0., 0., 0., 0.,
          4.75654990e-04, 1.30209855e-05, 0., 6.19891100e-04,
          -9.31780785e-04, -9.06581641e-04, -1.72810303e-03,
          5.26621589e-04, -6.64952851e-04, 0., 9.65825981e-04,
          1.08697719e-03, -3.01716966e-04, 0., -4.16583801e-03,
          2.80115777e-03, 8.27351527e-04, -2.00722367e-03,
          7.80550297e-04, -3.73090792e-04, 2.26519682e-04,
          1.04247265e-04, 4.67655918e-04, 3.24830390e-03, 1.86753183e-04,
          -5.81266591e-04, 0., 0., 0., 0., 3.15279787e-04,
          1.45430071e-03, 5.80333697e-04, 5.40889276e-04, 0., 0.,
          9.33530682e-05, 7.80550297e-04, 0., 0., -2.02328688e-03,
          -3.36954487e-04, 0., 0., 0., 0., 0., 8.19407171e-04, 0., 0.,
          0., 0., 0., 0., -2.51353369e-04, 1.22349488e-03,
          -2.03663739e-03, 0., 0., 0., 0., 0., 0., 0., 2.17303541e-03,
          -1.86790153e-03, 2.89643882e-04, 0., -3.54017690e-03, 0.,
          1.17457518e-03, 1.14305294e-04, 2.03603297e-03, 2.82548578e-03,
          -1.84982619e-03, 1.01632718e-02, 6.37832272e-04,
          -1.19696895e-04, -2.59146001e-03, 5.52879507e-03,
          -5.37153508e-04, 2.08027475e-03, -3.54746939e-04,
          -2.70142057e-03, 1.42406533e-03, -1.05555030e-03,
          -9.84230312e-04, 1.04292929e-02, -2.55860126e-04,
          3.04316217e-03, -3.78696481e-04, -7.60485127e-05, 0.,
          -4.12753376e-04, 4.12926631e-04, 1.33196590e-03,
          2.20465963e-03, 2.93481722e-03, 7.80550297e-04, 4.90872888e-04,
          -1.13160699e-03, -9.21053754e-04, 8.92436437e-05,
          2.15733796e-03, -1.91777910e-03, 8.92436437e-05, 0.,
          9.15945857e-04, -6.76366501e-04, 0., 0., 1.14300742e-03, 0.,
          -5.86373673e-04, 0., 0., 0., 0., 0., -1.48463587e-03,
          -1.14363409e-03, -3.50191927e-04, 0., 2.53022159e-03, 0.,
          2.89643882e-04, 0., 0., 1.75853213e-03, 0., 0.,
          -1.64350378e-03, 7.80550297e-04, -3.22699751e-04,
          -2.49102898e-03, -8.88732169e-03, -4.64978861e-03,
          -1.30371726e-03, 4.02654026e-04, -2.55749503e-04,
          1.52840788e-04, -1.97624718e-03, 1.69397611e-03,
          8.20130948e-03, -1.67565385e-03, -1.32444326e-03,
          8.72458098e-04, 2.03301618e-03, 4.20777033e-05, 3.87317757e-03,
          -7.52524997e-04, 1.90138945e-03, -7.27599079e-04,
          8.31494341e-04, -2.51353369e-04, 9.02257379e-05, 0.,
          3.78132885e-04, -4.52727458e-04, -7.65301404e-04,
          -1.78752805e-03, 3.55624408e-03, 0., 1.19194202e-03,
          1.10736804e-03, 1.29504711e-03, 6.06090587e-04, 3.44284577e-04,
          -1.79829262e-02, -8.15414172e-03, -8.98859755e-04,
          1.99384615e-03, -9.77187185e-04, 0., -1.13695161e-03,
          3.84338177e-03, -5.61028486e-04, 3.55394528e-04,
          -1.90960302e-03, -1.01328664e-03, -2.09080148e-03,
          -2.38838047e-03, 9.16899927e-03, 2.45065358e-03,
          -2.14981455e-02, -2.41835676e-02, 0., 1.07956200e-03,
          -2.39229924e-03, -1.91186892e-03, 1.84552468e-04,
          -3.53653741e-04, 7.51923816e-03, 2.49074743e-04,
          2.42334488e-03, -3.25982715e-03, 4.93878848e-04,
          -2.73986720e-03, 9.70638299e-04, -6.84765168e-03,
          9.21683200e-03, 1.41961698e-03, -2.17987364e-03,
          -3.29763768e-03, 5.72426431e-03, -1.32303266e-03,
          -2.93433573e-03, 5.14551485e-03, 3.98587435e-03,
          3.05850001e-04, -7.17379677e-04, 9.49973590e-04,
          4.63139266e-03, 2.04935684e-04, -5.42065175e-03,
          4.54750657e-03, 2.04772665e-03, -7.07305269e-04,
          7.80111703e-04, -8.74564983e-04, -2.90208438e-04,
          2.49998702e-04, -2.98237173e-05, -4.39618248e-03,
          -6.35685492e-03, 0., 0., -7.76486704e-05, 1.24994409e-03,
          1.25398103e-03, 1.76865538e-03, -1.34001439e-02,
          -2.78625288e-04, 8.30533099e-04, 0., 0., 0., 0.,
          2.55446619e-04, 1.79004855e-04, -1.86790153e-03,
          4.98093796e-05, 0., 0., 0., 0., -5.63792884e-04,
          3.56146862e-04, 4.34480462e-04, 7.79645052e-04, 0., 0.,
          -1.06372731e-03, 0., 0., 7.80550297e-04, 4.04926890e-04, 0.,
          0., 0., 4.42213286e-03, 0., -7.70632934e-04, 6.29719719e-03,
          -4.33476688e-03, 7.14470050e-04, 6.19891100e-04,
          -1.00233359e-03, 0., 0., 0., -3.64470598e-03, -1.10694102e-03,
          0., 0., 0., 0., 0., 3.12799611e-03, -1.02837628e-03,
          2.75005191e-03, -2.48191151e-04, 0., 0., -1.95174373e-03, 0.,
          -1.81476923e-03, 0., -1.70875748e-03, 0., 1.06829975e-04, 0.,
          -8.25909301e-05, 0., 4.16028895e-04, -7.06066436e-04,
          4.80638846e-04, 2.13102484e-03, 0., 0., 0., 0., 0., 0., 0., 0.,
          0., 0., 0., 0., 8.22628033e-04, 4.32242115e-04, 8.38240609e-04,
          -5.91360847e-04, 1.30209855e-05, 0., 7.87010358e-04, 0., 0.,
          0., 4.34200367e-04, -1.70875748e-03, -6.75617310e-04, 0.,
          9.76538926e-04, -1.86790153e-03, 4.21407021e-05,
          1.67958683e-03, 1.88396545e-03, 3.25395493e-03, 2.65043601e-03,
          1.26314256e-03, -9.77187185e-04, 3.48404888e-03,
          -1.85205558e-04, 9.74722952e-03, -3.50722228e-04,
          4.20777033e-05, 0., -3.50191927e-04, -1.26697810e-03,
          -1.21118827e-03, -8.19655615e-05, -5.52661624e-03,
          -6.96870440e-04, 7.45852536e-04, 9.74596012e-04,
          3.02749057e-03, 0., -1.14426934e-04, 4.21407021e-05,
          -1.92540977e-03, -9.32122057e-04, 0., 0., 0., 0.,
          -1.98339098e-04, 3.77169723e-04, -1.25415891e-03,
          7.80550297e-04, 1.94247451e-03, 0., -3.47152120e-04, 0.,
          -1.13160699e-03, 0., -1.04207755e-03, 0., 0., 0., 0., 0., 0.,
          0., -2.26964755e-03, 0., 1.15273579e-03, 0., 7.02655874e-04,
          0., 0., 0., 0., 0., 0., 0., 0., 0., 0., -7.64373748e-04,
          -2.05811136e-03, -8.44947877e-04, -1.71052234e-03,
          -2.62811035e-03, 6.41820068e-03, 8.92436437e-05,
          -1.06934865e-03, 0., 2.15068529e-03, -2.63613125e-04,
          1.47167957e-04, 0., -1.21118827e-03, -9.77187185e-04,
          -6.75617310e-04, -1.28592976e-04, -5.13208983e-03,
          -8.98859755e-04, 7.94485444e-04, 0., -7.06380059e-04, 0., 0.,
          0., 7.80550297e-04, 6.19891100e-04, 0., 0., 0., 0., 0.,
          -2.46352283e-04, -7.02332612e-03, -2.24134885e-03,
          -5.53343957e-03, 1.97701418e-04, -3.37646110e-03,
          4.31083492e-04, 7.68151693e-03, -1.32241272e-04,
          1.28323532e-04, 0., 5.16367424e-03, 6.00184139e-05,
          -2.41365324e-05, -1.14744913e-03, 1.08048692e-03,
          1.70981279e-03, -9.40057682e-04, -1.76950917e-03,
          -2.70891981e-03, 1.18868156e-04, 2.38856392e-05, 0.,
          -4.12753376e-04, 6.65892439e-04, -1.78372278e-03, 0.,
          -2.44501454e-04, 0., 0., 1.23268284e-03, -2.24087015e-03,
          -2.89862091e-03, 4.46843775e-03, 1.02779195e-02,
          -1.38681056e-03, -1.13188950e-02, -1.71083026e-03,
          -5.65378275e-03, -7.99175119e-04, 3.07566719e-03,
          4.98093796e-05, 1.57412863e-03, -1.36152352e-03,
          -1.37935323e-03, 1.89463768e-04, -4.97026509e-03,
          1.06041238e-03, -4.63275146e-03, -1.90827507e-03,
          1.17346505e-03, -3.15999053e-03, -2.98554963e-03,
          1.82036788e-03, -2.15193038e-04, 0., -5.58736455e-03, 0.,
          -2.82953563e-03, -2.66238349e-04, 1.64904911e-03,
          -2.65167537e-03, 1.66672253e-04, 3.16572725e-04,
          1.96229201e-02, -6.52617868e-03, 1.47167957e-04, 0.,
          -2.21670372e-03, 0., 1.70666230e-04, 0., 8.19407171e-04, 0.,
          -1.69201661e-03, 1.63130043e-03, 2.54918798e-03,
          -5.84086112e-04, -1.65862276e-03, 0., 4.55531105e-03,
          -5.01745730e-04, -1.76889065e-04, -6.75617310e-04, 0., 0.,
          -1.53885654e-03, 0., 3.32182506e-04, 0., -3.18590202e-03,
          -3.95946112e-03, 1.21598644e-03, -6.46276821e-05,
          6.23285305e-03, -2.07799138e-03, 2.30225269e-03,
          4.93961340e-03, 1.75514631e-03, 2.24122894e-03, 0., 0.,
          9.33530682e-05, 0., 0., 0., 0., 0., 0., 0., -5.37885993e-04,
          8.45771923e-04, 3.07787466e-03, -2.39118026e-03, 0., 0., 0.,
          0., 0., 0., 0., 0., 1.19653728e-03, 0., 1.73573615e-03, 0.,
          1.06829975e-04, 0., 2.86645675e-03, 5.06807351e-03, 0., 0., 0.,
          0., 0., 0., 0., 0., 0., -7.44926103e-04, -6.31592004e-04,
          -6.76366501e-04, 0., -2.48191151e-04, 1.08323141e-03,
          -3.44525288e-05, -1.01328664e-03, 0., 0., 0., 7.87435507e-04,
          0., 0., 0., 2.88045406e-03, -7.76486704e-05, 3.75739974e-03,
          1.42000348e-03, -1.01284022e-02, -3.94387869e-03,
          -2.91439309e-03, 2.16293172e-03, -8.16902844e-04,
          -2.64387745e-06, 0., 1.30209855e-05, 0., 0., 0., 0., 0., 0.,
          0., 0., 0., 0., 1.78012036e-04, 2.36977736e-04, 0.,
          -8.98859755e-04, 0., 1.30209855e-05, 0., 0., 0., 0.,
          -1.80393457e-03, 1.75514631e-03, -3.50191927e-04, 0.,
          3.41685233e-03, 1.14425155e-03, 4.55455342e-03,
          -2.05423241e-03, 0., 0., 0., 0., 0., 0., 0., 0.,
          -7.06380059e-04, 0., 0., 0., 0., 0., 0., -1.16468035e-03, 0.,
          -2.64387745e-06, 0., 0., 0., 0., 0., 0., -1.95174373e-03,
          -9.06581641e-04, 2.47740187e-03, 0., 2.01989285e-04, 0.,
          5.95820462e-03, -6.12382218e-03, 0., -1.52469845e-04, 0., 0.,
          0., 0., 0., 0., -1.14426934e-04, 0., 0., 0., 0., 0., 0.,
          -3.78696481e-04, 0., -1.18031318e-03, 0., 0., 0., 0., 0., 0.,
          -4.62560856e-04, 0., 4.69257007e-04, 0., 1.73573615e-03, 0.,
          8.07182281e-04, 6.11642434e-04, 1.94722123e-03,
          -2.26762914e-03, 0., -3.73090792e-04, -5.84086112e-04, 0., 0.,
          0., 0., -3.76690092e-04, 0., 0., -3.97505844e-03, 0.,
          -4.37568640e-03, -2.28432895e-04, 5.97526785e-04,
          5.30445213e-05, -1.51727197e-03, -6.99070952e-05,
          3.31906020e-03, -4.53920919e-04, 6.98788138e-03,
          -1.93645037e-03, -4.79061343e-03, -1.05214294e-03,
          -2.65789567e-03, 0., 6.85781147e-03, 2.05772510e-03,
          -2.63058953e-03, 5.03429957e-03, 1.25490548e-02,
          -1.94742624e-05, -2.53291847e-03, -2.92298570e-03,
          6.26710849e-03, 3.99679923e-03, -8.68634880e-03,
          -1.86991580e-02, -9.82305780e-03, -6.78145516e-05,
          -1.02070649e-03, -1.07435207e-03, -2.00061174e-03,
          -1.91035192e-03, 1.66021066e-03, 2.26236344e-03,
          -1.22787810e-06, 0., -3.26833851e-03, -2.45368364e-03,
          -2.51353369e-04, 0., -1.28592976e-04, -1.46693469e-03,
          -6.77633658e-03, -2.27515190e-03, -8.63616413e-04,
          1.89326284e-03, -9.85799270e-05, 5.64638351e-04,
          -1.66564816e-04, 1.62196811e-02, 2.53991038e-03,
          1.08752947e-03, -3.99740893e-05, -2.88445572e-03, 0.,
          1.08142593e-03, -6.55921118e-04, -7.21542921e-04, 0., 0., 0.,
          1.37147249e-03, 0., 0., 2.90689844e-04, -7.66583136e-04,
          -3.14822164e-03, 5.57065592e-04, 2.24122894e-03, 0., 0., 0.,
          0., -2.51353369e-04, 8.51773482e-04, 0., 0., 0.,
          -3.38730821e-03, 0., 0., 1.28920795e-03, -8.63982656e-04, 0.,
          -7.96331005e-05, 8.04174284e-04, 8.45771923e-04, 0.,
          2.10932712e-03, -7.67361955e-04, -6.14397402e-04, 0., 0.,
          -4.31056047e-04, 1.23761012e-04, 0., 6.61810220e-04,
          1.74294389e-03, -6.17826264e-03, 1.73573615e-03, 0.,
          5.26621589e-04, 0., 0., 0., 0., -2.13154170e-04, 0., 0., 0.,
          -3.60117527e-03, 0., 6.69237273e-03, 3.21629271e-03, 0., 0.,
          0., -5.12445346e-04, 0., 0., 0., 0., 0., 0., 0.,
          1.24044286e-03, 0., 0., 0., -1.68627163e-03, -5.00987051e-03,
          -1.12096197e-04, 0., 0., 1.06829975e-04, 0., 0.,
          7.80550297e-04, 3.78806959e-03, 0., 0., 0., -3.43246240e-04,
          7.96296517e-04, -8.22314818e-04, 2.76593608e-03,
          1.37840310e-04, 1.06428284e-03, -3.44605884e-03,
          -3.46010202e-04, 7.23356963e-04, 6.11823471e-03,
          -1.77660026e-03, 3.15675288e-02, 6.84306899e-04,
          -1.25021744e-03, 2.85773975e-04, 4.84345155e-03,
          -3.90718051e-04, 5.32471633e-04, -9.30500682e-03,
          -3.95452138e-03, 4.73430700e-04, 0., 3.26215965e-03,
          8.69546260e-04, 0., 0., 2.24122894e-03, -3.09941405e-03, 0.,
          0., -5.84086112e-04, -1.17010073e-04, 0., 0., -2.44672433e-03,
          -2.01078248e-03, 0., 9.27618763e-04, -1.86790153e-03,
          2.09157908e-04, 0., 0., 0., 1.98639021e-03, 0., 0.,
          -1.81476923e-03, 1.90984714e-03, 0., 0., -1.12429331e-03,
          3.55662382e-03, 0., 0., -1.09697750e-03, 0., 0., 0., 0., 0.,
          0., 0., 0., 0., 0., 0., 0., 3.66942794e-03, 7.80550297e-04,
          1.28296099e-03, 1.49630301e-03, 3.49669112e-03, 0.,
          -3.48314364e-03, 0., 6.06943294e-03, 0., 0., 8.45771923e-04,
          2.81806453e-04, 0., 8.71343655e-04, 7.49538769e-04,
          -4.83369594e-03, 0., 0., 0., 2.54284911e-04, 0., 0.,
          -1.72211323e-03, -4.15181182e-03, 0., 0., 4.17551782e-04,
          -4.99043090e-04, 0., 0., 1.65228930e-03, -2.47427751e-03,
          -1.05214294e-03, 9.40130791e-04, 0., -5.39206900e-04, 0.,
          1.30689016e-03, 7.96296517e-04, 7.20705418e-03, 1.22349488e-03,
          0., 0., -3.83631908e-04, -9.32122057e-04, 5.40889276e-04,
          -1.38922019e-06, -4.87261033e-03, 8.07506440e-04,
          -1.90680148e-03, 0., 6.16175763e-04, 0., 0., -6.54617744e-03,
          -1.95423653e-03, 0., 8.72458098e-04, -5.91360847e-04, 0., 0.,
          -8.98859755e-04, -1.01338141e-03, -1.01465741e-02,
          6.69196947e-03, 6.14186469e-03, -2.89206114e-03,
          -3.28653771e-03, -4.61891294e-03, -4.17727657e-04,
          4.29372489e-03, 1.04031703e-02, -1.62238211e-04,
          -9.61133919e-04, -6.05390116e-04, -6.17136422e-04,
          -2.78804614e-03, -1.80274132e-04, -6.77648326e-03,
          -7.58645032e-03, 3.06258933e-03, 1.47132261e-04,
          -1.70875748e-03, -1.68300059e-03, 5.72328609e-05, 0.,
          9.81761492e-04, 0., -7.06645474e-03, -5.27105411e-04,
          -3.69941327e-03, -3.89711087e-04, -1.25040999e-02,
          -1.33871916e-03, 5.37562091e-03, -5.25571173e-03,
          2.55940971e-03, 7.04990875e-04, -1.95611431e-03, 0.,
          1.52840788e-04, 0., -1.82523055e-03, -5.82390407e-04,
          7.80550297e-04, 0., 0., -1.06177491e-03, 1.98065260e-04,
          -1.30349642e-03, 6.37986595e-05, 2.64079962e-03,
          2.98645673e-03, 0., -2.60751578e-03, 0., 1.44404871e-03, 0.,
          1.30209855e-05, -1.44015346e-03, 8.51899665e-03,
          1.93781732e-03, 1.32586836e-04, 0., 1.51195088e-02, 0.,
          1.39957340e-02, -7.17582041e-03, -1.75358131e-04,
          -1.88874092e-03, -1.24533847e-03, -1.52348285e-03,
          5.40889276e-04, 7.80550297e-04, 0., -2.11776979e-03, 0., 0.,
          0., 0., 0., 0., 1.89623283e-03, 0., -4.13064874e-04,
          1.45430071e-03, 0., -1.21118827e-03, 0., 0., 9.74596012e-04,
          0., 6.04519912e-04, 0., 0., 0., -1.44446769e-03,
          4.23205725e-04, -3.70806153e-03, -1.51305913e-03,
          -3.78819928e-03, 0., -1.65894802e-03, 1.46828312e-03, 0., 0.,
          2.32127588e-03, -1.70875748e-03, 0., 0., 0., -6.52312941e-04,
          2.89643882e-04, 0., 3.86435480e-04, 7.29735824e-04,
          -3.03053902e-03, -1.82288204e-04, 0., 2.26519682e-04, 0., 0.,
          9.18870865e-05, -5.34227409e-04, 6.79134857e-03,
          8.47045972e-04, 1.78012036e-04, 0., 1.44770555e-02,
          -9.61133919e-04, -4.03633621e-03, 2.62564397e-04,
          1.50341284e-03, 1.48962121e-04, -5.12060011e-03,
          3.47395637e-03, 0., -1.58040097e-03, 0., -2.35232059e-03, 0.,
          0., 0., 6.19891100e-04, 0., 0., -4.77750599e-03,
          -1.11158052e-03, 1.15273579e-03, 2.02716840e-03, 0.,
          -5.91360847e-04, 0., 0., 0., 0., 0., -1.13160699e-03, 0., 0.,
          0., 0., 1.04754036e-02, 3.04836035e-03, 6.37474528e-04, 0.,
          2.89643882e-04, -1.70875748e-03, 0., 0., 0., 0.,
          -2.83364148e-04, 0., 0., 0., 0., 0., 0., -1.00641031e-04,
          -2.25972239e-04, 0., 0., 0., 0., 0., 0., 0., 3.04710539e-03,
          -1.30013842e-03, 0., 0., 0., 0., -7.73821885e-05,
          -2.91266921e-03, 2.60898704e-03, 4.06924449e-03,
          1.36848714e-03, -4.60936408e-03, 0., 5.63852140e-04, 0.,
          -6.67900499e-03, 0., 0., 0., 1.99212413e-03, 0., 0., 0.,
          -2.30236049e-03, 1.10877212e-03, -7.44926103e-04, 0.,
          3.18674836e-04, 0., 0., 0., 4.20777033e-05, 0., 0., 0.,
          6.19891100e-04, 0., 0., 1.28009520e-03, 9.89434775e-04,
          1.56477618e-03, 1.20908744e-03, 0., 1.98800466e-03,
          -7.07367202e-04, 0., -1.80274132e-04, -2.22294335e-03,
          -4.26580664e-03, 1.30209855e-05, -7.96331005e-05, 0.,
          -6.83426333e-04, 2.61705194e-04, -3.54959676e-03,
          -1.75993436e-03, -8.00471101e-03, -2.05944385e-03,
          8.68986547e-03, 9.51195078e-04, 2.45623174e-03, 1.35983806e-03,
          3.70661705e-03, -6.44620624e-04, -1.93994353e-03,
          -1.54477567e-03, 3.36554763e-03, 2.23201583e-03,
          6.57292223e-03, 3.14996089e-03, -1.28005920e-02,
          -9.19017848e-03, 1.51993474e-02, 6.04700122e-04,
          -6.88885292e-03, -8.17215722e-03, -5.69199165e-03,
          -3.65072093e-03, -8.00451450e-03, -1.05452249e-02,
          -2.49426230e-03, -1.62178546e-03, 8.37644842e-03,
          -1.32002786e-03, 4.55534039e-03, -1.94269500e-03,
          -5.30843949e-03, -6.61239354e-03, 3.94764636e-03,
          1.40998175e-03, 1.73577573e-03, -6.62596314e-04,
          5.64186508e-03, 1.44417014e-03, 6.23572578e-06,
          -2.03046971e-03, 9.05091129e-03, -2.63613125e-04,
          3.25504714e-03, -2.26007716e-04, 8.13484564e-03,
          -2.03480176e-03, 3.34530743e-03, -1.15225557e-03,
          4.41798754e-03, -1.21003017e-03, 0., -1.00641031e-04,
          1.56789634e-03, 0., 3.59102385e-04, -1.03878253e-03,
          5.69805782e-03, 0., 1.04247265e-04, 0., -1.31875079e-03,
          -1.13160699e-03, 0., 0., 3.84889729e-03, -2.86691217e-03, 0.,
          -3.16293188e-03, 1.53107767e-03, 1.15273579e-03,
          8.46410752e-04, -1.00977067e-03, 7.07790209e-03,
          2.70741549e-03, 1.35340937e-03, 1.19371735e-03, 1.68608595e-02,
          -2.05806311e-04, 1.14540895e-03, -1.82916550e-03,
          -1.19701133e-03, -2.92616803e-03, -8.49736447e-04,
          -1.33966748e-03, 1.06406002e-03, 7.35977199e-04,
          -5.41346322e-04, 4.72941174e-04, -7.82619871e-04,
          -3.99740893e-05, -3.73090792e-04, -2.54422863e-04,
          -4.04974300e-04, 0., 0., -7.96331005e-05, 3.30898585e-03,
          1.24226534e-03, 0., 3.95839754e-03, 1.22349488e-03, 0.,
          -1.69619525e-04, 8.30848643e-04, 3.66132963e-03,
          2.89643882e-04, 0., -1.13160699e-03, 8.21263093e-05,
          3.97696532e-03, -3.07073205e-05, 1.14534504e-03,
          -1.38193360e-02, -2.66573182e-03, -2.78345251e-04,
          -3.50191927e-04, -5.54367318e-04, 2.67267722e-04,
          1.06383965e-03, 4.53886925e-04, 1.37008808e-03, 2.13500360e-04,
          1.73573615e-03, -8.77730839e-04, 2.47340300e-03,
          -2.45375652e-03, 0., 2.91813085e-05, 4.86136414e-03,
          -8.15650637e-05, -1.70875748e-03, 7.46407488e-04,
          -4.75838489e-04, 1.51418475e-03, -5.44156646e-04,
          9.54223739e-04, -4.35738079e-03, 3.50106065e-03,
          -1.04026205e-03, 2.30532442e-03, 2.09416752e-03,
          2.79440451e-03, -3.17338714e-03, -3.65306449e-04,
          -4.28742776e-03, -9.12504212e-04, -7.17569748e-03,
          -6.50753686e-03, 7.71119026e-04, -4.10737796e-03,
          -1.93210971e-03, -2.02195952e-03, -4.51874395e-04,
          -5.81266591e-04, 0., -1.98869407e-03, 0., -1.48894603e-03,
          -2.58408277e-03, -2.26100208e-03, -1.24081539e-03,
          5.24381758e-04, -2.54422863e-04, 0., 0., 4.29494190e-04,
          -4.12753376e-04, 1.33641949e-03, -1.98947717e-04,
          7.80550297e-04, 0., -3.73090792e-04, 1.28811970e-03,
          -9.78819444e-04, -1.09704073e-04, 4.32370137e-03,
          4.59964760e-03, 2.93229404e-03, 0., -1.34759583e-03, 0., 0.,
          9.48524394e-04, -6.64302381e-04, 2.11056729e-04, 0., 0.,
          -6.75617310e-04, 2.01989285e-04, 0., -7.76486704e-05,
          8.04174284e-04, -2.03240593e-03, -2.77258852e-03,
          2.26519682e-04, 6.12058851e-04, 0., -2.51353369e-04, 0.,
          -1.19397033e-03, 1.97029789e-03, -2.64860777e-04,
          1.34588871e-03, -4.68763616e-03, 6.93495013e-03,
          -6.42525993e-05, 2.95354635e-03, 9.43977153e-04,
          8.02436750e-03, -5.62326889e-03, -2.69787991e-03,
          -5.58897434e-03, 7.62240612e-04, 0., -1.84613664e-03,
          -9.21787322e-03, 0., -9.51430295e-04, 0., -4.24097088e-04,
          1.88399677e-03, -5.98104263e-04, -1.66751398e-03,
          -6.69310277e-04, -3.70940822e-03, 1.30800821e-03,
          -1.13160699e-03, -1.08735124e-03, -1.96388410e-03,
          -9.57176904e-04, -1.49789592e-03, -3.25084454e-03,
          1.15273579e-03, 7.04990875e-04, -1.28592976e-04,
          -2.18117377e-03, -1.70471880e-03, 2.72325298e-04,
          2.89535878e-04, -2.43399455e-03, 9.05654801e-04,
          1.18190120e-03, 1.46823947e-03, 3.68511514e-03,
          -1.90387934e-03, 2.93077878e-03, 4.39849682e-03,
          -4.20233147e-04, 8.19407171e-04, -6.18866819e-04,
          -1.79046358e-03, 6.67035274e-05, 3.51845520e-04,
          -4.53580637e-04, -2.54422863e-04, -1.73628679e-03,
          -1.08904846e-03, -5.08756237e-03, 9.53788112e-04,
          -8.58894899e-04, 1.97481201e-03, 1.77228253e-03,
          -7.81113573e-04, -1.31782936e-03, 7.32907886e-03,
          -1.10343832e-03, -1.08374725e-03, -1.13691986e-02,
          2.67240847e-03, 3.85020557e-03, -1.75419892e-03,
          1.23783667e-02, 1.43307708e-02, 9.32615367e-04,
          -8.31846613e-03, 3.51280184e-03, -1.13102805e-03,
          4.28508967e-04, -7.14734662e-03, 2.47193687e-03,
          -1.71101507e-04, -1.44442066e-03, 1.20860909e-03,
          3.26354126e-03, 8.97208974e-03, 1.72500047e-04, 1.03128767e-02,
          1.49273993e-02, 9.38034337e-03, 1.02242432e-03,
          -1.17153665e-02, 2.53991038e-03, 3.64619377e-03,
          -2.83364148e-04, -1.89628806e-02, -3.90635198e-03,
          6.35663804e-04, 5.40889276e-04, 0., 1.03878893e-03,
          1.78271215e-02, 6.60371967e-04, 8.18847306e-03,
          -1.70797590e-04, -4.23007831e-03, -1.32677760e-02,
          1.37273897e-03, -1.95094489e-03, 0., 0., -5.81266591e-04,
          -2.08626408e-03, -1.86790153e-03, 0., 0., 0., 2.83475360e-03,
          0., 7.50917709e-03, -9.92233516e-04, 1.69815484e-03, 0.,
          2.96609360e-03, 8.50988028e-04, 3.88203282e-03, 0.,
          -5.81266591e-04, -1.50841009e-03, -1.47775805e-03, 0., 0.,
          -9.61133919e-04, 9.51863639e-03, -3.73090792e-04,
          -3.82186123e-03, -2.99242721e-03, 3.00824409e-03,
          5.43456001e-04, 0., 2.56976206e-03, 0., 0., 0., 0., 0., 0., 0.,
          -3.50191927e-04, 0., 0., 0., 1.22544763e-04, 1.38586166e-03,
          5.25015814e-04, 0., 0., 0., 0., 0., 0., 0., -1.21118827e-03,
          0., 0., 0., 0., 0., -5.91360847e-04, 4.14815964e-03,
          7.43112015e-03, 4.06742608e-03, 5.12686558e-04, 0., 0.,
          -4.52799816e-03, 2.36530486e-03, 0., 5.40889276e-04,
          -5.91360847e-04, 0., 0., 0., -4.14385286e-04, -5.76090009e-04,
          -3.25312861e-03, -4.82006581e-05, -4.78851638e-04,
          1.77443633e-03, 0., 2.90689844e-04, 1.23268284e-03,
          -5.72038523e-04, 0., 0., 0., 0., -1.14426934e-04,
          -1.86790153e-03, -1.21385383e-03, -1.64867716e-03,
          -4.05957486e-04, 2.49177846e-03, -5.91360847e-04,
          -3.96737875e-03, 0., 0., 0., -1.92037097e-03, -1.81476923e-03,
          1.23923190e-03, 0., -7.05602346e-04, 1.38858403e-03,
          2.17487593e-03, 4.13833838e-03, 4.96830139e-03, 7.59989838e-04,
          0., -2.48009048e-04, -1.81476923e-03, -3.16293188e-03,
          -2.30742898e-03, -2.47069029e-03, 2.11433345e-03, 0., 0.,
          3.16446676e-04, 0., 1.47167957e-04, 3.60113429e-03,
          4.52042138e-03, 1.48291308e-02, -3.37926811e-03,
          -5.79770003e-03, 0., -7.06380059e-04, 0., 0., 0., 0., 0., 0.,
          0., -1.48012629e-03, 1.45430071e-03, 2.79219262e-03,
          -1.11239275e-03, -3.35076521e-03, 3.45931668e-03, 0., 0.,
          1.78012036e-04, 1.18387246e-03, 1.22349488e-03,
          -1.21118827e-03, 1.57702749e-03, 2.38541863e-03, 0.,
          1.33987376e-03, 1.99904409e-03, 3.85491271e-03, 2.63677305e-03,
          -7.44926103e-04, -5.61439898e-03, -1.00623621e-02,
          4.36827354e-03, -1.29774096e-03, 2.60963337e-03, 0.,
          -1.17930147e-04, 1.46047270e-03, -3.12844547e-03, 0.,
          7.55180372e-04, 0., 6.96634641e-03, -2.34113005e-03,
          -1.37918314e-03, 4.21407021e-05, -1.18424895e-03, 0.,
          -9.32122057e-04, 8.98732687e-04, 3.81578866e-04, 0.,
          -1.59002899e-03, 1.27330434e-03, 4.61893011e-04, 0.,
          -1.33518100e-04, 0., -1.55964296e-03, 0., -8.73102865e-04,
          -6.43252535e-03, 5.06083481e-03, -1.21347848e-02,
          -7.82923494e-03, 4.56909940e-04, -1.44062033e-02, 0.,
          -3.42948036e-03, 3.42510152e-03, 9.65861790e-03,
          1.69942016e-03, -8.76143202e-03, 0., -3.16007063e-03,
          -2.62946379e-03, -2.70795450e-03, 7.50453561e-04,
          -1.55637693e-02, -1.71859993e-03, -8.18837958e-04,
          5.40889276e-04, -9.20944382e-03, 1.23268284e-03,
          4.28707292e-03, 1.30209855e-05, -3.47841415e-03, 0.,
          -2.36694911e-03, 9.33530682e-05, -8.79060477e-03,
          -2.17470224e-03, -6.76182215e-04, -1.04136989e-02,
          1.11368410e-02, -1.06048770e-02, -2.77191047e-02,
          -1.12642616e-03, 0., 1.13470131e-03, 2.27140775e-03,
          2.85284547e-03, 2.99050868e-03, 9.69850644e-03,
          -7.45345838e-03, 2.94270413e-03, 2.67386762e-03,
          6.81980420e-03, 2.86382460e-03, 1.96870063e-02, 1.03523675e-02,
          -7.33632781e-03, -1.39359599e-02, 3.86571698e-03,
          1.37857930e-03, 0., 0., 2.08107987e-04, -7.44926103e-04,
          -8.53701320e-04, -3.39007849e-04, 5.98977180e-03,
          4.15247586e-03, 8.33477173e-03, -1.17007317e-03,
          1.18587641e-02, 1.72505211e-02, -2.92609388e-04,
          -2.86005088e-03, 0., 0., 0., 0., -1.14770408e-03,
          7.94485444e-04, 0., 1.28153755e-04, 9.27618763e-04,
          1.18387246e-03, 0., 0., 7.91852653e-04, -4.30206116e-03,
          3.77836754e-03, -3.70047521e-03, 1.57590688e-03, 0.,
          1.93830475e-03, 7.94485444e-04, 1.20138586e-03, 0.,
          9.11004259e-04, 1.12471823e-03, 3.32233403e-03, 0.,
          1.92904100e-02, 1.11390627e-03, 1.66001841e-02, 1.18490495e-02,
          -2.74633523e-03, 0., 0., 0., 2.67267722e-04, 0., 0., 0., 0.,
          0., 0., 0., 7.94485444e-04, 0., 1.18387246e-03, 0.,
          -6.63503131e-04, -8.14583153e-04, 0., 0., 0., 0., 0., 0.,
          7.94485444e-04, 0., 8.45771923e-04, 0., 1.77262689e-03, 0.,
          2.04860279e-03, 1.76478294e-03, -4.72555030e-03,
          1.52838218e-03, 9.33530682e-05, 0., -1.05858408e-03, 0., 0.,
          -1.81476923e-03, 1.37147249e-03, 5.82966954e-04, 0., 0.,
          3.64983547e-03, 0., 1.24044286e-03, -1.55146513e-03,
          -1.43537822e-03, -2.26909717e-04, 5.96422749e-03, 0.,
          4.93412779e-04, 0., 0., 0., 0., 0., 4.17551782e-04,
          5.65464143e-03, 8.91493727e-03, 7.87010358e-04, 4.82370891e-03,
          1.18424380e-02, 8.04212526e-04, -3.95762036e-03, 0., 0.,
          7.93570536e-04, 1.99212413e-03, 2.53087282e-03, 1.93834724e-03,
          1.71232433e-03, 9.69130488e-04, 0., 0., 1.78012036e-04,
          -1.76008523e-03, -4.54221532e-04, -3.36954719e-04,
          -8.65127705e-03, -3.73090792e-04, 0., 0., 0., 0.,
          1.37147249e-03, 6.31483446e-04, -9.92962669e-05,
          -1.28592976e-04, 0., 0., 0., 7.96296517e-04, -1.80326833e-03,
          8.65077320e-03, -8.30685836e-04, -6.04614790e-04, 0., 0., 0.,
          1.23268284e-03, 2.57568554e-05, 1.22349488e-03, 0., 0.,
          4.98093796e-05, 0., 0., 0., 0., -1.28769618e-03,
          -5.17001376e-04, -7.06380059e-04, 0., 0., 0., 0., 0., 0., 0.,
          0., 0., 0., 0., 7.87010358e-04, 9.33530682e-05, 6.11236924e-03,
          7.24105118e-03, -3.80518846e-03, 0., -9.61133919e-04,
          1.48152898e-03, 0., 1.45430071e-03, 2.01989285e-04,
          1.64490042e-03, 0., 0., 2.67267722e-04, 3.54319788e-03,
          7.04990875e-04, -2.01855274e-03, 2.02482333e-03,
          1.15150828e-02, -2.69664242e-03, 0., 0., 0., 0., 0., 0.,
          8.75366328e-04, 0., 0., 0., 1.34083594e-03, 1.37147249e-03,
          -2.21182010e-03, -1.15887017e-03, -3.15631777e-02,
          -5.74832782e-03, -2.05887901e-03, -6.42900181e-04,
          -1.44271681e-03, -5.81423556e-05, 1.60724006e-03,
          3.45468544e-03, 2.27112975e-03, -5.32133412e-03,
          -2.80571682e-03, 1.45430071e-03, 7.46787479e-03,
          -3.10854334e-03, -1.36500970e-02, -1.79158002e-02,
          -2.79084835e-02, -2.25837696e-02, -9.69646033e-03,
          -6.51117042e-03, 0., -2.64313864e-03, -9.24439076e-03,
          -5.32905571e-03, 8.34482443e-03, -2.04141112e-03,
          -1.02872698e-04, 4.40248230e-04, 9.75696649e-03,
          1.24552287e-03, -1.60537753e-02, -2.36742683e-02,
          6.80899713e-04, -6.17097458e-03, -7.14569818e-04,
          5.79603901e-03, -7.86436372e-04, 2.26184912e-03,
          -2.57179490e-03, 1.94503076e-03, -8.95573013e-03,
          -5.07184013e-04, 0., -8.64392554e-04, -1.75195804e-03,
          -1.45970273e-03, -1.31387252e-03, -1.54686871e-03,
          5.16320625e-03, -1.75204547e-03, -1.70260071e-04,
          6.16455509e-04, 1.89567870e-03, 2.94947065e-03, 9.27618763e-04,
          1.78012036e-04, 2.94614467e-03, 2.67267722e-04,
          -1.87721802e-04, 0., -3.41666921e-04, -1.55524537e-03,
          -3.27294762e-03, 3.11545469e-03, 2.33329763e-03,
          -1.30198582e-03, 1.02753378e-03, 1.24629165e-04, 0.,
          -2.91994563e-03, 0., 1.85772672e-03, -1.93716283e-03,
          -5.81266591e-04, 0., 0., -2.71157059e-03, -5.74219134e-03, 0.,
          -5.81266591e-04, 5.74580440e-03, 6.04952569e-04,
          -1.77747558e-03, 1.23268284e-03, 0., 0., 0., -9.61133919e-04,
          -6.75895571e-05, -8.63590336e-04, -8.96490470e-04,
          3.95529391e-03, -1.33128848e-03, 1.47167957e-04,
          -3.74687486e-03, -1.59780041e-03, -3.19387601e-03,
          3.74486460e-03, -6.03479857e-04, -4.10582317e-04, 0.,
          6.12211274e-03, -8.64339236e-04, 8.47045972e-04,
          1.41355023e-03, 0., 0., 2.26519682e-04, 0., 0., 7.04990875e-04,
          0., 5.24530944e-04, -8.64392554e-04, -4.12753376e-04,
          1.03878893e-03, 0., 0., -5.81266591e-04, 2.67267722e-04,
          -1.53268478e-03, 0., -9.77187185e-04, -1.14426934e-04, 0.,
          7.94485444e-04, 2.57568554e-05, 0., -8.01215786e-03,
          -1.06150296e-03, 2.71448772e-03, -9.32122057e-04,
          1.45430071e-03, 3.53573821e-04, -5.84086112e-04,
          1.73573615e-03, -4.03831154e-03, -1.28592976e-04,
          1.22349488e-03, 0., 1.30102155e-03, -1.68421143e-03,
          2.37696711e-03, 4.65460034e-04, 7.44875148e-03,
          -1.72069611e-03, 2.14357977e-03, -1.07086427e-03,
          2.43969189e-04, -3.04872124e-03, -4.45049722e-03,
          2.81058077e-04, -8.16490501e-03, 5.32639853e-04,
          -1.03777302e-02, -9.51709319e-03, -1.02782361e-02,
          -7.06352433e-03, -1.48971891e-03, -9.62116569e-03,
          8.29019677e-03, 9.28934105e-03, 4.76552546e-03, 1.09416433e-02,
          8.89266492e-04, 3.47850216e-03, 1.24044286e-03, 7.13861082e-03,
          -1.74735114e-03, 0., 0., 1.78012036e-04, -6.22480991e-04,
          2.57568554e-05, -8.98859755e-04, 3.26199748e-04,
          1.41842128e-03, -1.57131755e-03, 0., -4.01860714e-04,
          7.96296517e-04, 5.40889276e-04, 0., 1.84161717e-03,
          1.09490193e-03, -3.89711087e-04, -3.34055978e-04,
          1.95649511e-04, 0., 6.19891100e-04, -5.37885993e-04,
          4.20777033e-05, 3.59508721e-03, 1.98486797e-03, 1.07153421e-04,
          3.06236558e-04, 8.92436437e-05, 4.20777033e-05, 1.37857930e-03,
          -2.66260817e-04, 5.61842637e-04, 0., 0., 0., -1.14426934e-04,
          -7.11300876e-04, 2.00001508e-04, 7.87010358e-04,
          3.31737683e-04, -2.37873523e-03, -1.81476923e-03,
          4.53990739e-04, -6.38527039e-04, 2.01989285e-04,
          -8.98859755e-04, 4.20777033e-05, -2.44435621e-03,
          -1.95174373e-03, -1.13160699e-03, 7.87010358e-04, 0.,
          2.67779548e-03, 0., -4.05344181e-03, 1.51054503e-03,
          2.60969996e-03, -1.98165700e-03, 2.82667596e-02,
          2.74430285e-03, 7.14970846e-03, -1.69858884e-03,
          1.10713998e-02, 5.40889276e-04, 2.71787308e-03, 0.,
          1.79402437e-03, -1.15910394e-03, 2.71033216e-03,
          4.98093796e-05, 6.70855166e-03, -3.50750866e-03,
          -4.15339891e-04, 0., 2.30085012e-03, 4.90697130e-05,
          1.18352089e-03, -8.39253946e-04, 4.96801268e-03,
          -9.09577007e-04, -6.95619150e-04, 0., 3.99505161e-03,
          -1.98947717e-04, 1.99847040e-03, 1.47167957e-04,
